svm_type ss2lm
kernel_type rbf
gamma 0.0138889
nr_class 2
total_sv 106
rho 0.504994
label 1 -1
nr_sv 34 72
c_square 369.424975
r_square 368.867180
SV
0.5 1:-0.273416 2:-0.194345 3:-0.118134 4:-0.0514981 5:-0.807248 6:-0.452198 7:0.460884 8:0.209669 9:0.186953 10:-0.225231 11:-0.31663 12:-0.245293 13:-0.304158 14:0.314325 15:0.293047 16:-0.145622 17:0.0416947 18:-0.33962 19:-0.147087 20:0.409008 21:0.0780497 22:0.168708 23:-0.158962 24:-0.655748 25:-0.0294183 26:0.545708 27:0.228758 28:0.360908 29:-0.146872 30:-0.391246 31:-0.613759 32:0.69732 33:-0.20998 34:0.385626 35:0.447227 36:-0.256405 37:-0.205781 38:0.397295 39:-0.0690644 40:-0.0988492 41:-0.0566892 42:0.20672 43:0.385561 44:0.365952 45:0.672587 46:0.643042 47:0.361007 48:-0.286624 49:-0.0387039 50:0.614923 51:-0.691408 52:0.120137 53:0.260224 54:-0.323333 55:0.0232433 56:0.634554 57:0.444533 58:-0.205485 59:0.36029 60:-0.52885 61:-0.25818 62:0.682992 63:-0.202273 64:0.341023 65:0.237419 66:-0.0888056 67:-0.372229 68:0.187216 69:-0.245891 70:-0.0158874 71:0.409677 72:0.00642398 
0.1666666666666667 1:-0.104141 2:-0.131989 3:0.0236102 4:-0.177515 5:-0.786232 6:-0.245974 7:0.499757 8:0.475242 9:0.144618 10:-0.0789521 11:-0.402985 12:-0.231666 13:-0.449954 14:0.423608 15:0.259881 16:-0.204489 17:-0.0742574 18:-0.21267 19:-0.144922 20:0.580756 21:0.133686 22:0.257926 23:-0.170762 24:-0.647989 25:0.0789858 26:0.28884 27:0.0875233 28:0.245709 29:-0.144995 30:-0.320644 31:-0.0773302 32:0.846585 33:-0.354266 34:0.474626 35:0.313559 36:-0.229815 37:-0.350093 38:0.598305 39:0.145804 40:0.176536 41:0.0344522 42:0.504184 43:0.617827 44:0.412465 45:0.331826 46:0.34644 47:0.0401031 48:-0.31057 49:0.0845438 50:0.489616 51:-0.763414 52:0.115843 53:0.0567248 54:-0.347051 55:0.467223 56:0.446548 57:0.31283 58:0.0131078 59:0.320414 60:-0.603306 61:-0.143731 62:0.266057 63:-0.361775 64:0.250888 65:0.252104 66:-0.0482433 67:-0.316907 68:0.237556 69:-0.200653 70:0.0698892 71:0.399436 72:0.0848334 
0.1666666666666667 1:0.102517 2:-0.827789 3:1 4:-0.1 5:-0.733333 6:-0.0588235 7:-0.93099 8:-0.253282 9:0.170153 10:-0.594354 11:-0.285714 12:-1 13:0.766658 14:0.60905 15:0.1722 16:0.753011 17:-0.142857 19:-0.0575988 20:0.0401808 21:0.415387 22:0.0167224 23:-0.375 24:-0.769231 25:0.329222 26:0.0230415 27:0.631853 28:0.363636 29:-0.378882 30:-0.764706 31:0.116344 32:-0.319634 33:1 34:-0.310925 35:0.310654 36:-0.536906 37:-0.131156 38:-0.556499 39:0.869792 40:0.193549 41:0.447298 42:0.394178 43:-0.612673 44:-0.404884 45:-0.491285 46:-0.839684 47:-0.657059 48:-0.831018 49:1 50:-1 51:0.698336 52:0.279129 53:-1 54:0.45766 55:0.237505 56:-0.220912 57:0.163115 58:1 59:0.108898 60:-0.717172 61:0.415063 62:-0.344894 63:-0.506033 64:0.149022 65:0.505582 66:-0.45 67:-0.0249891 68:-1 69:-0.47776 70:-0.596742 71:0.302222 72:-0.102787 
0.1666666666666667 1:0.151328 2:-0.199477 3:0.116543 4:-0.0769231 5:-0.714286 6:-0.372549 7:-0.623764 8:-0.62215 9:0.264627 10:0.0843239 11:-0.428571 12:-0.346939 13:0.443219 14:0.315884 15:-0.0369034 16:0.296704 17:-0.214286 18:0.375 19:0.000159784 20:0.423105 21:-0.47576 22:0.835749 23:-0.53125 24:-0.3125 25:0.0060409 26:-0.189231 27:-0.296234 28:-0.459691 29:-0.56044 30:-0.52381 31:0.533937 32:-0.275063 33:0.512396 34:0.533336 35:-0.346639 36:-0.543154 37:-0.0253117 38:-0.605141 39:0.0129097 40:0.482234 41:-0.352699 42:0.473487 43:-0.596487 44:-0.175186 45:-0.107966 46:-0.321507 47:-0.485448 48:-0.894204 49:0.0185606 50:0.00800642 51:0.36228 52:0.779146 53:0.104712 54:-0.0343511 55:0.773452 56:0.27879 57:0.659231 58:-0.603185 59:-0.269057 60:-0.355828 61:-0.62558 62:-0.318577 63:0.248129 64:-0.349101 65:-0.136886 66:-0.156682 67:-0.283895 68:-0.241423 69:-0.143344 70:0.716962 71:0.222744 72:-0.109965 
0.1666666666666667 1:0.146146 2:-0.633831 3:0.00805035 5:-0.833333 6:-0.435294 7:-1 8:-0.818299 9:-0.312045 10:-0.0981163 11:-0.157895 12:-0.327731 13:1 14:0.270026 15:-0.49264 16:0.319809 17:-0.0756303 18:-0.703704 19:-0.816465 20:0.102849 21:0.796291 22:0.321739 23:-0.605263 24:-0.6 25:0.517615 26:0.0899418 27:-0.454188 28:0.25 29:-0.428571 30:-0.304348 31:0.380931 32:-0.430391 33:0.746976 34:0.894398 35:0.255674 36:-0.202825 37:-0.0543565 38:-1 39:0.232466 40:0.252121 41:0.128131 42:0.41362 43:-1 44:-0.387814 45:-0.642129 46:0.518634 47:-0.169673 48:-0.46625 49:0.418791 50:-0.403722 51:1 52:-0.368162 53:0.850785 54:-0.403053 55:0.839961 56:-0.0834255 57:0.174675 58:-1 59:-0.120407 60:-0.896694 61:-0.232912 62:-0.294512 63:1 64:-0.797634 65:0.332145 66:0.0291971 67:-0.272605 68:-0.0882003 69:0.148029 70:0.083343 71:0.176063 72:-0.0147288 
0.5000000000000001 1:0.118454 2:-0.286529 3:-0.467022 4:-0.0666667 5:-0.857143 6:-0.498039 7:-0.202924 8:-0.196002 9:-0.572786 10:-0.865825 12:-0.179487 13:-0.122856 14:0.182614 15:-0.164481 16:-0.467276 17:-0.493088 18:-0.695652 19:-0.106269 20:-0.0245176 21:0.0559637 22:0.0133333 23:-0.375 24:-0.604651 25:0.0820311 26:-0.0913876 27:-0.0666209 28:0.404342 29:-0.0204082 30:-0.434783 31:0.405786 32:0.294071 33:-0.924161 34:-0.00868327 35:0.302688 36:-0.041075 37:-0.0827237 38:-0.236341 39:-0.235091 40:-0.596068 41:0.522282 42:0.300397 43:-0.230648 44:0.0454553 45:0.408259 46:-0.135507 47:-0.665176 48:0.00666158 49:-0.123062 50:0.0684682 51:-0.541134 52:0.123037 53:0.0052356 54:-0.111619 55:0.263725 56:-0.114672 57:0.346172 58:-0.429146 59:0.178141 60:-0.400205 61:0.440682 62:0.284667 63:-0.484486 64:0.0330262 65:-0.171684 66:-0.0479339 67:-0.101404 68:0.393551 69:-0.639882 70:0.498789 71:0.491094 72:0.0299082 
0.6666666666666667 1:0.00209209 2:-0.00663538 3:0.144542 4:0.123867 5:-0.760814 6:-0.351534 7:0.37626 8:0.214021 9:0.181911 10:-0.190894 11:-0.124031 12:-0.400203 13:-0.359701 14:0.378149 15:0.276769 16:-0.166879 17:-0.23372 18:-0.40665 19:-0.262642 20:0.51173 21:0.0581825 22:-0.0111076 23:-0.082397 24:-0.668342 25:-0.00271003 26:0.388493 27:0.167188 28:-0.00871281 29:-0.294252 30:-0.476056 31:0.319541 32:0.273084 33:-0.452811 34:0.294082 35:0.075222 36:-0.399111 37:-0.23875 38:0.620518 39:0.173576 40:0.0814654 41:0.114313 42:0.309347 43:0.61283 44:0.0849622 45:0.166997 46:0.426466 47:-0.0797774 48:-0.483169 49:0.307552 50:0.138847 51:-0.671321 52:-0.0731504 53:0.100316 54:-0.498859 55:0.471603 56:0.184279 57:0.327506 58:-0.00971666 59:0.0750415 60:-0.822886 61:-0.075029 62:0.263428 63:-0.513413 64:0.26207 65:0.0863678 66:-0.163432 67:-0.202248 68:-0.01751 69:-0.387308 70:-0.498828 71:0.27824 72:-0.184565 
0.03844443161935499 1:0.0925032 2:0.137786 3:-0.177223 4:-0.203125 5:-0.818182 6:0.568627 7:-0.154169 8:-0.0614992 9:0.31997 10:-0.406543 11:-0.361702 12:-0.00952381 13:0.09935 14:0.253092 15:0.401954 16:-0.052289 17:-0.0222222 18:-0.407407 19:-0.0600333 20:-0.195344 21:-0.52989 22:-0.296947 23:-0.487179 24:-0.818182 25:0.161394 26:0.105643 27:-0.0666209 28:0.128527 29:-0.78022 30:-0.575758 31:0.635237 32:-0.137012 33:0.128441 34:-0.295502 35:-0.0955895 36:0.064459 37:-0.0981834 38:0.133768 39:-0.117373 40:-0.48124 41:-0.141277 42:0.538776 43:0.131699 44:-0.27347 45:0.474307 46:-0.370751 47:-0.353774 48:-0.294728 49:-0.115188 50:0.445909 51:-0.203712 52:-0.230841 53:0.212992 54:-0.0939204 55:-0.467933 56:-0.132669 57:0.289434 58:-0.269651 59:-0.0110242 60:-0.620235 61:-0.377024 62:-0.136451 63:-0.379559 64:0.00367863 65:0.151922 66:0.0357143 67:-0.100655 68:0.354297 69:-0.242097 70:-0.0996761 71:0.441746 72:-0.0532177 
0.8333333333333334 1:-0.00906131 2:-0.0249078 3:-0.26718 4:-0.119149 5:-0.806452 6:-0.33842 7:0.368858 8:0.539587 9:-0.166758 10:-0.434665 11:-0.552699 12:-0.294589 13:-0.224557 14:0.0174982 15:-0.0170582 16:-0.163865 17:-0.288907 18:-0.333333 19:-0.181493 20:0.129529 21:0.133777 22:0.0567604 23:-0.175978 24:-0.571429 25:-0.0139998 26:0.231121 27:-0.264198 28:0.115702 29:-0.292267 30:-0.352809 31:0.312894 32:0.485093 33:-0.297183 34:0.337307 35:0.265562 36:-0.257843 37:-0.251814 38:0.621689 39:0.0455352 40:0.111956 41:-0.0052417 42:0.433211 43:0.61563 44:0.212775 45:0.271174 46:0.273815 47:0.0447859 48:-0.249281 49:0.0746665 50:0.369013 51:-0.70353 52:-0.278566 53:-0.153373 54:-0.389075 55:0.159192 56:0.420937 57:0.0277832 58:-0.268594 59:0.071049 60:-0.434625 61:-0.166629 62:0.285381 63:-0.406746 64:0.118092 65:-0.0135018 66:-0.161644 67:-0.09668 68:0.196703 69:-0.274442 70:-0.00280125 71:0.372825 72:-0.299909 
0.04915120777184365 1:-0.0671773 2:-0.0615552 3:-0.0184724 4:0.00622776 5:-0.811838 6:-0.302652 7:0.422656 8:0.337992 9:-0.174271 10:-0.398709 11:-0.356486 12:-0.192693 13:-0.495794 14:0.11303 15:0.167428 16:-0.282832 17:-0.0381928 18:-0.281981 19:-0.239685 20:0.326183 21:0.0131709 22:0.217278 23:-0.106922 24:-0.65533 25:0.0251532 26:0.102316 27:0.0899703 28:0.305826 29:-0.257466 30:-0.416853 31:0.465931 32:0.503776 33:-0.347729 34:0.405473 35:0.134146 36:-0.378355 37:-0.297762 38:0.600593 39:0.0219431 40:0.206108 41:0.161437 42:0.568165 43:0.595227 44:0.314571 45:0.153415 46:0.163584 47:-0.0497313 48:-0.534453 49:0.152369 50:0.20156 51:-0.762347 52:-0.123984 53:0.00187775 54:-0.427574 55:0.269116 56:0.362578 57:0.25798 58:-0.0563121 59:0.254419 60:-0.505086 61:-0.123309 62:0.282985 63:-0.393994 64:0.221373 65:-0.0371277 66:-0.12398 67:-0.0947331 68:-0.110002 69:-0.246014 70:-0.00488587 71:0.303203 72:-0.422836 
0.8333333333333334 1:0.120665 2:-0.346611 3:0.219159 4:-0.616279 5:-0.633333 6:-0.477124 7:-0.327439 8:-0.386277 9:0.80571 10:-0.518945 11:-0.333333 12:-0.0776942 13:-0.396402 14:0.485263 15:0.550575 16:-0.498985 17:0.109244 18:-0.373134 19:-0.946304 20:0.0810271 21:-0.219519 22:-0.117589 23:0.0384615 24:-0.444444 25:0.443309 26:0.1549 27:0.19335 28:0.184953 29:-0.0756303 30:-0.253333 31:0.15135 32:0.150914 33:-0.523262 34:0.239093 35:0.269737 36:-0.371185 37:-0.109842 38:-0.0596923 39:0.49761 40:0.0384595 41:0.385122 42:0.748148 43:-0.0335134 44:-0.0993916 45:-0.563094 46:-0.607976 47:-0.334581 48:-0.921013 49:0.742787 50:-0.231391 51:-0.363399 52:-0.589559 53:-0.268135 54:-0.829373 55:0.249592 56:-0.450743 57:-0.473102 58:-0.312799 59:0.975381 60:-0.830331 61:0.160955 62:0.0358848 63:-0.240281 64:0.442957 65:0.558664 66:-0.238095 67:0.064389 68:-0.45216 69:-0.424868 70:-0.763916 71:0.338865 72:0.00843175 
0.1666666666666667 1:0.0955086 2:-0.0546563 3:0.0218631 4:-0.347826 5:-0.824561 6:-0.176471 7:-0.134607 8:0.0703632 9:-0.303853 10:-0.544081 11:-0.428571 12:-0.428571 13:-0.103359 14:-0.182533 15:0.115961 16:-0.306683 17:-0.251701 18:0.0666667 19:0.0941169 20:-0.28232 21:-1 22:0.0434783 23:-0.596774 24:-0.65625 25:0.211328 26:0.538057 27:-0.0407597 28:-0.497608 29:-0.262673 30:-0.631579 31:0.307008 32:0.167313 33:-0.542501 34:-0.0925663 35:0.118223 36:-0.0724666 37:-0.105808 38:-0.113839 39:-0.258349 40:-0.635842 41:0.712418 42:0.435724 43:-0.096702 44:0.140206 45:0.194184 46:-0.385705 47:-0.177868 48:-0.131758 49:-0.312784 50:0.200386 51:-0.631021 52:0.0688836 53:0.784723 54:-0.181216 55:-0.166177 56:-0.072047 57:0.423739 58:-0.43168 59:0.117161 60:-0.693859 61:0.76223 62:0.12662 63:-0.287445 64:0.239246 65:0.0682761 66:0.00638978 67:-0.0530277 68:0.102072 69:0.0126678 70:-0.0468885 71:0.539573 72:-0.168873 
0.1666666666666667 1:-0.148536 2:-0.172563 3:-0.0932831 4:-0.10678 5:-0.797537 6:-0.38144 7:0.410751 8:0.359566 9:0.0339309 10:-0.273932 11:-0.367552 12:-0.253472 13:-0.307214 14:0.256972 15:0.269923 16:-0.106799 17:0.0332143 18:-0.357862 19:-0.0207896 20:0.446102 21:0.126706 22:0.147439 23:-0.161726 24:-0.623199 25:-0.0102304 26:0.452497 27:0.283237 28:0.299 29:-0.202041 30:-0.43415 31:-0.496177 32:0.632331 33:-0.131924 34:0.558076 35:0.409471 36:-0.243329 37:-0.360476 38:0.550419 39:0.0271628 40:0.0408402 41:0.185508 42:0.304331 43:0.55835 44:0.251068 45:0.493603 46:0.592838 47:0.164709 48:-0.333445 49:0.0987607 50:0.549662 51:-0.704286 52:0.192534 53:0.147937 54:-0.347465 55:0.283975 56:0.555772 57:0.339173 58:-0.0392786 59:0.316014 60:-0.402162 61:-0.059244 62:0.552635 63:-0.246784 64:0.325368 65:0.0990957 66:-0.145752 67:-0.345282 68:0.11953 69:-0.121914 70:0.0393301 71:0.370573 72:0.162612 
0.1666666666666667 1:0.054677 2:-0.25592 3:-0.183034 4:0.0960187 5:-0.816092 6:-0.327409 7:0.137139 8:0.190606 9:-0.0541483 10:-0.394003 11:-0.413953 12:-0.288437 13:-0.416064 14:0.436455 15:0.312717 16:-0.0354916 17:0.103654 18:-0.346341 19:-0.214177 20:0.571104 21:0.298992 22:0.199356 23:-0.152334 24:-0.555556 25:0.0882204 26:0.393167 27:0.278693 28:0.320779 29:-0.200556 30:-0.270423 31:0.176176 32:0.107485 33:0.0269768 34:0.867618 35:0.500301 36:-0.233178 37:-0.185354 38:0.35814 39:0.0449786 40:0.255662 41:0.280511 42:0.505018 43:0.367523 44:0.139021 45:0.373433 46:0.487396 47:0.0631791 48:-0.491377 49:0.118786 50:0.406158 51:-0.621856 52:0.441168 53:0.232141 54:-0.262383 55:0.696329 56:0.467242 57:0.41469 58:-0.090348 59:0.601985 60:-0.379833 61:-0.029703 62:0.47373 63:-0.124133 64:0.41378 65:0.0736859 66:-0.0545145 67:-0.172438 68:-0.0945115 69:-0.0890872 70:0.226839 71:0.454067 72:0.0842408 
0.8333333333333334 1:0.0485975 2:-0.186903 3:-0.0487151 4:-0.215596 5:-0.778878 6:-0.386079 7:0.147885 8:0.154708 9:-0.00697799 10:-0.29135 11:-0.260982 12:-0.0963455 13:-0.391028 14:0.309319 15:0.261236 16:-0.114733 17:0.176425 18:-0.345354 19:-0.146048 20:0.329367 21:0.0436361 22:0.0506132 23:-0.214109 24:-0.659155 25:-0.0851185 26:0.418403 27:0.404664 28:0.292218 29:-0.178386 30:-0.252907 31:0.285693 32:0.309913 33:-0.138004 34:0.318443 35:0.371549 36:-0.145898 37:-0.18715 38:0.388377 39:0.130515 40:0.24181 41:0.223878 42:0.497032 43:0.390738 44:0.0707368 45:0.380992 46:0.335805 47:0.149284 48:-0.324433 49:0.292837 50:0.485454 51:-0.709982 52:0.0323169 53:0.306045 54:-0.504919 55:0.281398 56:0.225009 57:0.385647 58:-0.169797 59:0.301694 60:-0.479883 61:-0.0512375 62:0.508052 63:-0.100339 64:-0.112539 65:0.211918 66:0.0223464 67:-0.134032 68:0.0715963 69:-0.183909 70:-0.108058 71:0.484112 72:0.295946 
0.1666666666666667 1:0.1269 2:-0.214777 3:-0.289094 4:-0.0973451 5:-0.805556 6:-0.287758 7:-0.200787 8:-0.0613367 9:-0.0471272 10:-0.613076 11:-0.558824 12:-0.0980695 13:-0.432326 14:-0.0290143 15:0.462107 16:0.156853 17:-0.0677966 18:-0.418994 19:-0.29037 20:0.478089 21:-0.093735 22:0.121659 23:-0.159483 24:-0.634021 25:-0.0679466 26:0.558377 27:0.162545 28:0.28149 29:-0.129252 30:-0.460784 31:0.182172 32:0.198007 33:-0.459625 34:0.205187 35:0.50974 36:-0.568467 37:-0.0709556 38:-0.0714771 39:0.00889115 40:0.261374 41:0.0227269 42:0.373804 43:-0.060193 44:0.0311607 45:0.164243 46:0.234837 47:0.0976203 48:-0.473703 49:-0.153059 50:0.300931 51:-0.749815 52:0.545983 53:0.320023 54:-0.303785 55:0.247049 56:0.510338 57:0.580404 58:-0.406508 59:0.287404 60:-0.617576 61:-0.109483 62:0.6597 63:-0.479346 64:0.0921831 65:0.406855 66:-0.109974 67:-0.195654 68:0.0171811 69:-0.153179 70:-0.346171 71:0.29468 72:-0.421755 
0.1666666666666667 1:0.118702 2:-0.310431 3:0.112883 4:-0.0320946 5:-0.779978 6:-0.437888 7:0.0108631 8:0.261622 9:0.234625 10:-0.191792 11:-0.374613 12:-0.168179 13:-0.435718 14:0.468902 15:0.36145 16:-0.160589 17:-0.00348432 18:-0.338141 19:-0.287334 20:0.44012 21:0.180904 22:0.0668973 23:-0.196562 24:-0.61746 25:0.0538934 26:0.353643 27:0.187212 28:0.212121 29:-0.24812 30:-0.401914 31:0.35753 32:0.262947 33:-0.339443 34:0.537272 35:0.293305 36:-0.450648 37:-0.154764 38:0.392614 39:0.389781 40:0.165855 41:0.269591 42:0.46787 43:0.394366 44:0.0853071 45:0.316208 46:0.256927 47:-0.0788885 48:-0.454946 49:0.500009 50:0.264958 51:-0.735047 52:0.177379 53:0.142252 54:-0.395755 55:0.595247 56:0.282533 57:0.157401 58:-0.065139 59:0.466296 60:-0.565999 61:0.0315891 62:0.352161 63:-0.265778 64:0.0350875 65:-0.0135841 66:-0.145401 67:-0.185566 68:-0.0846767 69:-0.296069 70:0.0725296 71:0.336984 72:-0.425544 
0.1666666666666667 1:-0.188479 2:-0.138197 3:-0.00927292 4:-0.135056 5:-0.813055 6:-0.471994 7:0.472231 8:0.429073 9:0.20557 10:-0.156839 11:-0.354763 12:-0.203687 13:-0.230026 14:0.286081 15:0.337036 16:-0.0760135 17:0.00195695 18:-0.264656 19:-0.121174 20:0.576318 21:0.193746 22:0.175609 23:-0.223108 24:-0.646943 25:-0.0250709 26:0.410742 27:0.0955718 28:0.289875 29:-0.169621 30:-0.419842 31:-0.518333 32:0.631617 33:-0.149884 34:0.490258 35:0.384673 36:-0.367758 37:-0.358046 38:0.500075 39:0.0728764 40:0.0610744 41:-0.0413762 42:0.240204 43:0.520242 44:0.469767 45:0.650746 46:0.686565 47:0.234721 48:-0.341569 49:0.0815118 50:0.655903 51:-0.666572 52:0.140859 53:0.185458 54:-0.259542 55:0.256924 56:0.750912 57:0.425597 58:-0.110986 59:0.217605 60:-0.514314 61:-0.224387 62:0.537781 63:-0.265097 64:0.376617 65:0.0477518 66:-0.12744 67:-0.384631 68:0.145692 69:-0.175999 70:0.0077433 71:0.385843 72:-0.401941 
0.04189702254095659 1:0.0260247 2:0.437888 3:0.191596 5:-0.75 6:-0.411765 7:0.320272 8:0.173084 9:0.147991 10:-0.678811 11:-0.0909091 12:-0.0559006 13:-0.754887 14:0.120021 15:0.110973 16:-0.618993 17:0.885714 18:-0.294118 19:-0.308948 20:0.268525 21:-0.705892 22:0.0621118 23:-0.464286 24:-0.717391 25:-0.122813 26:0.682317 27:-0.869577 28:0.193182 29:-0.605911 30:-0.692308 31:0.582422 32:0.299071 33:-0.740032 34:-0.0221059 35:0.0953796 36:0.0449285 37:-0.180724 38:0.487818 39:-0.717327 40:-0.368965 41:-0.0999066 42:0.536073 43:0.500521 44:0.0435661 45:-0.0592997 46:-0.0198392 47:-0.158751 48:-0.0243284 49:-0.777765 50:0.0690602 51:-0.945701 52:-0.00365391 53:-0.164703 54:-0.0508987 55:-0.132124 56:0.0612146 57:0.463466 58:-0.40092 59:0.214244 60:-0.823529 61:-0.284118 62:0.819148 63:-0.552207 64:0.116904 65:0.03193 66:-0.214022 67:-0.250986 68:0.491984 69:0.0930545 70:-0.347994 71:0.459073 72:0.0871636 
0.5000000000000001 1:0.078515 2:-0.22664 3:0.126741 4:-0.0547945 5:-0.789617 6:-0.332781 7:0.105873 8:0.255064 9:0.36734 10:-0.341822 11:-0.345622 12:-0.203297 13:-0.282801 14:0.486655 15:0.452164 16:-0.205295 17:-0.0747664 18:-0.287879 19:-0.243893 20:0.334787 21:-0.0509263 22:0.0993905 23:-0.188247 24:-0.637664 25:-0.12751 26:0.337381 27:0.14842 28:0.329661 29:-0.228747 30:-0.33646 31:0.314312 32:0.368589 33:-0.101495 34:0.241235 35:0.253848 36:-0.26959 37:-0.18251 38:0.421754 39:0.390114 40:0.246198 41:0.245059 42:0.494227 43:0.427077 44:0.13427 45:0.304122 46:-0.185532 47:-0.0319221 48:-0.505463 49:0.395704 50:0.402751 51:-0.613788 52:0.0300661 53:0.0602566 54:-0.327379 55:0.371959 56:0.309874 57:0.0806631 58:-0.198283 59:0.152631 60:-0.605986 61:0.0668944 62:0.207961 63:-0.322293 64:0.272477 65:0.109718 66:-0.150971 67:-0.126835 68:-0.147827 69:-0.206511 70:-0.0964044 71:0.339246 72:0.0940078 
0.6666666666666667 1:-0.0237279 2:0.216064 3:0.23323 4:0.0149254 5:-0.807018 6:-0.238095 7:0.441501 8:0.341877 9:-0.264491 10:-0.0619032 11:-0.540741 12:-0.324349 13:-0.39633 14:-0.062299 15:0.0490491 16:-0.135576 17:0.0793651 18:-0.408805 19:-0.14075 20:0.523657 21:-0.00822829 22:0.128097 23:-0.196429 24:-0.516779 25:-0.0510334 26:0.121114 27:-0.572853 28:-0.0151515 29:-0.405561 30:-0.297297 31:0.359612 32:0.282989 33:-0.375351 34:0.543763 35:-0.191016 36:-0.333849 37:-0.23336 38:0.608758 39:0.0474114 40:0.360844 41:0.10934 42:0.364135 43:0.614498 44:0.191825 45:-0.00537598 46:0.381571 47:-0.359478 48:-0.305141 49:0.0867111 50:0.333499 51:-0.840528 52:-0.156406 53:-0.182112 54:-0.400144 55:0.598332 56:0.356462 57:0.389625 58:-0.161683 59:0.00827307 60:-0.57799 61:-0.403304 62:0.0196572 63:-0.413173 64:0.322016 65:-0.038948 66:-0.208877 67:-0.244676 68:0.125913 69:-0.0533083 70:-0.149289 71:0.138349 72:-0.071681 
0.8333333333333334 1:-0.0589806 2:-0.129646 3:-0.185715 4:-0.0956938 5:-0.828729 6:-0.413217 7:0.337152 8:0.481716 9:0.325589 10:-0.284472 11:-0.269444 12:-0.275966 13:-0.317293 14:0.451964 15:0.29177 16:-0.0971471 17:0.148552 18:-0.291163 19:-0.274097 20:0.735969 21:0.0924641 22:0.142136 23:-0.133545 24:-0.63716 25:0.114328 26:0.719294 27:0.295256 28:0.504152 29:-0.00995426 30:-0.39839 31:0.0286061 32:0.0604558 33:-0.114271 34:0.631607 35:0.758165 36:-0.145035 37:-0.27042 38:0.455654 39:0.100879 40:-0.189544 41:0.283925 42:0.28944 43:0.473457 44:0.415271 45:0.578208 46:0.815973 47:0.413258 48:-0.387341 49:0.0640607 50:0.678007 51:-0.683142 52:0.178381 53:0.341544 54:-0.172301 55:0.329944 56:0.670409 57:0.256971 58:-0.110094 59:0.367403 60:-0.389846 61:-0.138588 62:0.697699 63:-0.0994111 64:0.781026 65:0.181608 66:-0.00884956 67:-0.312624 68:0.116806 69:-0.0572948 70:0.0206443 71:0.553023 72:0.0257768 
0.1282222350473117 1:-0.056135 2:1 3:0.240842 4:-0.25 5:1 6:-1 7:0.674422 8:0.0150071 9:-0.493398 10:-0.942393 11:1 12:0.52381 13:-0.153616 14:0.110994 15:-0.0406303 16:-0.806436 17:-1 18:-1 19:-0.601105 20:0.451409 21:-0.0847727 22:-0.304348 23:-0.375 24:-0.583333 25:-1 26:-0.434635 27:0.651004 28:0.534091 29:0.428571 30:1 31:0.337726 32:-0.174512 33:-0.180908 34:0.223336 35:-0.484546 36:0.68993 37:-0.249611 38:0.696278 39:-0.278301 40:-0.499646 41:-0.30507 42:0.45 43:0.719781 44:0.0909081 45:0.704484 46:-0.179879 47:0.00585297 48:0.249122 49:-0.420695 50:0.61866 51:-0.439876 52:-0.0572033 53:-0.328492 54:0.250954 55:-0.113033 56:0.232961 57:-0.321639 58:-0.102288 59:-0.934316 60:-0.168514 61:-0.195682 62:-0.382176 63:-0.921593 64:-0.906906 65:-1 66:1 67:1 68:0.352399 69:-0.743929 70:0.547757 71:0.162698 72:-0.0334408 
0.1666666666666667 1:-0.0368384 2:0.349024 3:-0.278565 4:0.0819672 5:-0.79798 6:-0.00928793 7:0.483696 8:0.285283 9:0.312007 10:-0.292719 11:-0.413793 12:0.00348432 13:-0.382068 14:0.194785 15:-0.0620637 16:-0.482437 17:-0.135714 18:-0.612245 19:-0.0462336 20:0.138207 21:0.23422 22:0.0949318 23:-0.179688 24:-0.571429 25:-0.157801 26:0.204638 27:0.200516 28:0.606061 29:-0.176755 30:-0.15942 31:0.544689 32:0.386748 33:-0.563543 34:0.157085 35:0.0139369 36:-0.347221 37:-0.243369 38:0.644508 39:-0.306516 40:-0.164095 41:-0.0533865 42:0.12615 43:0.665543 44:0.0861439 45:0.324491 46:0.447911 47:0.077788 48:-0.161011 49:-0.186853 50:0.390819 51:-0.689454 52:-0.258501 53:0.19682 54:-0.521613 55:0.131692 56:0.38911 57:0.172891 58:-0.124626 59:0.0350505 60:-0.487183 61:-0.37872 62:0.384324 63:-0.456562 64:0.474326 65:-0.271905 66:0.0332447 67:-0.42437 68:0.403266 69:-0.211668 70:-0.0268404 71:0.501956 72:-0.143476 
0.1666666666666667 1:-0.0914318 2:0.429795 3:-0.2148 4:0.481013 5:-0.85 6:-0.529412 7:0.582128 8:0.280675 9:0.0659617 10:-0.599245 11:-0.441176 12:-0.117794 13:-0.305206 14:0.0838102 15:-0.0957205 16:-0.294523 17:0.0630252 18:-0.5 19:0.119554 20:0.265202 21:-0.0507517 22:0.145257 23:-0.342105 24:-0.390244 25:0.163676 26:-0.140891 27:-0.20602 28:0.353147 29:-0.333333 30:-0.25 31:0.513702 32:0.285336 33:-0.395738 34:0.306016 35:-0.165152 36:-0.376797 37:-0.280325 38:0.714849 39:-0.377185 40:0.156442 41:-0.200471 42:0.262585 43:0.722394 44:0.101872 45:0.370754 46:0.265528 47:0.234553 48:-0.293099 49:-0.182393 50:0.311821 51:-0.657493 52:0.479451 53:-0.334549 54:-0.615129 55:0.269585 56:0.716742 57:0.440017 58:-0.345295 59:0.20356 60:-0.496548 61:-0.548995 62:0.454954 63:-0.483743 64:-0.0570223 65:0.0431805 66:-0.0481144 67:-0.343285 68:0.0996447 69:-0.0364967 70:0.108912 71:0.244579 72:-0.11728 
0.1175154588948232 1:-0.0857377 2:-0.0907808 3:-0.187206 4:-0.0635209 5:-0.815094 6:-0.501588 7:0.478005 8:0.304561 9:0.0150101 10:-0.378822 11:-0.428864 12:-0.269579 13:-0.404484 14:0.192926 15:0.0908189 16:-0.154079 17:-0.0288167 18:-0.318498 19:-0.270059 20:0.393429 21:0.0290403 22:0.0594236 23:-0.17341 24:-0.64178 25:-0.140396 26:0.438363 27:0.118095 28:0.193542 29:-0.0233236 30:-0.329202 31:-0.110618 32:0.588723 33:-0.155415 34:0.424843 35:0.388122 36:-0.243517 37:-0.293657 38:0.6009 39:-0.0562637 40:-0.16217 41:0.0162531 42:0.36019 43:0.584018 44:0.275453 45:0.366582 46:0.39702 47:0.160892 48:-0.372526 49:0.0828733 50:0.245321 51:-0.721226 52:-0.00747559 53:0.1742 54:-0.299283 55:0.10278 56:0.506642 57:0.399145 58:-0.224276 59:0.183301 60:-0.585544 61:-0.183962 62:0.505583 63:-0.246823 64:0.269 65:0.261808 66:-0.123475 67:-0.268512 68:0.0637285 69:-0.266441 70:0.0791258 71:0.431784 72:0.178538 
0.1666666666666667 1:-0.159638 2:-0.13938 3:-0.0254731 4:-0.124234 5:-0.823789 6:-0.462348 7:0.49885 8:0.329229 9:0.25114 10:-0.251627 11:-0.407618 12:-0.212674 13:-0.258767 14:0.359507 15:0.175477 16:-0.108823 17:0.0437746 18:-0.326169 19:-0.224085 20:0.473184 21:0.0715131 22:0.148 23:-0.0843621 24:-0.630435 25:-0.0851346 26:0.506242 27:0.162359 28:0.259461 29:-0.145892 30:-0.455933 31:-0.63369 32:0.745687 33:-0.157324 34:0.544741 35:0.283567 36:-0.294271 37:-0.340128 38:0.514591 39:0.0700253 40:-0.00475451 41:0.0029888 42:0.291035 43:0.513326 44:0.393729 45:0.683739 46:0.576767 47:0.172039 48:-0.297219 49:0.0517604 50:0.613677 51:-0.711602 52:0.0226598 53:0.330086 54:-0.277287 55:0.142402 56:0.637328 57:0.40067 58:-0.148134 59:0.213426 60:-0.485014 61:-0.103704 62:0.597051 63:-0.322309 64:0.275021 65:0.119622 66:-0.153775 67:-0.312098 68:0.178398 69:-0.203041 70:0.0726127 71:0.321518 72:-0.213407 
0.1666666666666667 1:-0.0610586 2:-0.0434006 3:0.0268368 4:-0.0367893 5:-0.785467 6:-0.422745 7:0.437001 8:0.355685 9:0.202221 10:-0.311616 11:-0.367311 12:-0.144716 13:-0.334232 14:0.364809 15:0.187154 16:-0.0385168 17:-0.107323 18:-0.281846 19:-0.1413 20:0.405779 21:0.129357 22:0.0693865 23:-0.232112 24:-0.653693 25:-0.0191929 26:0.313547 27:0.165346 28:0.192282 29:-0.348863 30:-0.331887 31:-0.0206676 32:0.529921 33:-0.149882 34:0.27118 35:0.232958 36:-0.419589 37:-0.288498 38:0.62552 39:0.0514102 40:0.0715505 41:0.106803 42:0.309125 43:0.616237 44:0.231131 45:0.559629 46:0.3111 47:0.0834855 48:-0.33077 49:0.220074 50:0.490304 51:-0.705627 52:-0.0399742 53:0.0125611 54:-0.277409 55:0.286552 56:0.453161 57:0.22521 58:0.0289137 59:0.258711 60:-0.606718 61:-0.200798 62:0.554931 63:-0.303827 64:0.177989 65:0.0325 66:-0.121053 67:-0.319205 68:0.103336 69:-0.12617 70:-0.0291218 71:0.387541 72:-0.631989 
0.1666666666666667 1:0.0639985 2:-0.0601393 3:-0.204247 4:-0.113111 5:-0.800766 6:-0.458587 7:0.221663 8:0.226223 9:-0.341849 10:-0.548086 11:-0.335423 12:-0.3644 13:-0.567133 14:0.0801406 15:-0.0751092 16:-0.152179 17:0.0770465 18:-0.232514 19:-0.149188 20:0.443718 21:0.0768348 22:0.0305226 23:-0.292208 24:-0.578662 25:-0.0796857 26:0.313331 27:0.211146 28:0.400597 29:-0.256854 30:-0.377622 31:0.3674 32:-0.024303 33:-0.3954 34:0.560038 35:0.431875 36:-0.320321 37:-0.174926 38:0.495129 39:0.069921 40:0.18524 41:0.28277 42:0.547315 43:0.533686 44:0.0608391 45:0.045761 46:0.0838244 47:-0.0911365 48:-0.625378 49:0.0692403 50:0.14699 51:-0.813581 52:-0.061158 53:-0.11349 54:-0.442299 55:0.504352 56:0.240369 57:0.0765761 58:0.111104 59:0.417934 60:-0.596599 61:0.066459 62:0.270224 63:-0.374923 64:0.394271 65:-0.0375412 66:-0.12207 67:-0.161025 68:-0.0953946 69:-0.345369 70:-0.0816435 71:0.426624 72:-0.0917988 
0.1247696441257101 1:0.00732303 2:0.406488 3:0.387601 5:-1 6:-0.324284 7:0.382791 8:0.542642 9:-0.840351 10:0.0089153 11:-0.555556 12:-0.010661 13:-0.495196 14:0.370577 15:-0.32501 16:0.0453461 17:0.1 18:-0.318681 19:0.135781 20:0.665021 21:0.0127185 22:0.652174 23:-0.107143 24:-0.628571 25:-0.151462 26:0.0437306 27:0.187963 28:0.146984 29:-0.319728 30:-0.623529 31:0.474414 32:0.357654 33:-0.485767 34:0.673307 35:-0.0502683 36:-0.345368 37:-0.210543 38:0.574903 39:-0.536928 40:0.37746 41:-0.341316 42:0.0900709 43:0.588904 44:0.121419 45:0.0815659 46:0.932294 47:0.498113 48:-0.401888 49:-0.450428 50:0.235459 51:-0.759944 52:-0.151569 53:-0.141022 54:-0.287053 55:0.296629 56:0.561112 57:0.63762 58:0.281556 59:0.0587201 60:-0.489402 61:-0.624238 62:0.239703 63:-0.471926 64:0.227482 65:-0.264119 66:-0.0876565 67:-0.361441 68:0.411949 69:-0.372233 70:0.038906 71:0.160826 72:-0.0880839 
0.1666666666666667 1:-0.0491829 2:0.242883 3:-0.260161 4:0.031746 5:-0.823529 6:-0.440382 7:0.493073 8:0.4114 9:-0.0330291 10:-0.0696617 11:-0.33871 12:-0.1 13:-0.530742 14:-0.00606319 15:-0.139251 16:-0.183865 17:0.162065 18:-0.294872 19:-0.0513868 20:0.617744 21:-0.334363 22:0.0434783 23:-0.190647 24:-0.584 25:0.122675 26:0.188098 27:-0.151405 28:0.0654779 29:-0.458874 30:-0.2 31:0.322457 32:0.33049 33:-0.310588 34:0.45155 35:0.0431893 36:-0.344577 37:-0.244362 38:0.614457 39:-0.137438 40:-0.167202 41:-0.107843 42:0.450788 43:0.638668 44:0.256241 45:0.112179 46:0.773093 47:-0.0126928 48:-0.324711 49:-0.151297 50:0.173696 51:-0.843745 52:-0.0748188 53:-0.0514006 54:-0.299726 55:0.212717 56:0.775342 57:0.0376727 58:-0.108015 59:0.446274 60:-0.651417 61:-0.261414 62:0.649137 63:-0.443528 64:0.0257386 65:-0.103842 66:-0.10957 67:-0.40502 68:0.30974 69:-0.263688 70:0.238734 71:0.374243 72:-0.13232 
0.8333333333333334 1:0.0610549 2:-0.200841 3:-0.243403 4:-0.123777 5:-0.821229 6:-0.509575 7:0.25986 8:0.146808 9:0.212342 10:-0.264427 11:-0.348104 12:-0.188888 13:-0.308955 14:0.162052 15:0.223868 16:-0.150962 17:0.00895566 18:-0.337733 19:-0.182848 20:0.459968 21:0.0202243 22:0.146814 23:-0.17388 24:-0.612695 25:-0.0121957 26:0.444746 27:0.148305 28:0.263029 29:-0.0249169 30:-0.3739 31:-0.379323 32:0.689798 33:-0.181444 34:0.547987 35:0.417815 36:-0.272716 37:-0.138887 38:0.42841 39:0.0734071 40:0.119809 41:0.268368 42:0.434221 43:0.427565 44:0.129121 45:0.496095 46:0.349254 47:0.209432 48:-0.337452 49:0.124863 50:0.521075 51:-0.743147 52:0.128843 53:0.124685 54:-0.397181 55:0.221874 56:0.522252 57:0.289939 58:-0.185079 59:0.452165 60:-0.436895 61:-0.0127815 62:0.63656 63:-0.265696 64:0.196136 65:0.03431 66:-0.0902778 67:-0.184367 68:0.0534632 69:-0.232971 70:0.126766 71:0.38752 72:-0.14525 
0.1666666666666667 1:0.134353 2:-0.219674 3:0.104651 4:-0.207436 5:-0.799701 6:-0.420446 7:0.0735288 8:0.229365 9:0.137072 10:-0.241994 11:-0.4371 12:-0.260341 13:-0.451272 14:0.315638 15:0.353103 16:-0.172103 17:-0.0645457 18:-0.252888 19:-0.279445 20:0.315773 21:0.0650943 22:0.0777622 23:-0.216758 24:-0.612903 25:-0.0971934 26:0.166931 27:0.101877 28:0.160228 29:-0.294855 30:-0.379882 31:0.258024 32:0.397816 33:-0.246767 34:0.505822 35:0.206724 36:-0.315154 37:-0.127181 38:0.430251 39:0.296327 40:0.18586 41:0.132951 42:0.516312 43:0.391759 44:0.0736891 45:0.121499 46:0.138922 47:-0.136917 48:-0.471148 49:0.385391 50:0.182395 51:-0.765257 52:0.0785936 53:0.0534666 54:-0.430911 55:0.492067 56:0.286822 57:0.370407 58:-0.149125 59:-0.047171 60:-0.72706 61:-0.07244 62:0.236322 63:-0.29273 64:-0.0272716 65:-0.0166667 66:-0.18938 67:-0.0949335 68:-0.148394 69:-0.311313 70:-0.171911 71:0.304042 72:-0.0274577 
0.1666666666666667 1:0.102 2:-0.103218 3:0.658063 4:0.285714 5:-0.666667 6:-0.529412 7:-0.72105 8:-0.0499739 9:-0.588636 10:-0.344061 11:-0.5 12:0.52381 13:-0.387166 14:0.215539 15:0.348495 16:-0.447742 17:-0.0756303 18:-0.0909091 19:-0.0332416 20:-1 21:-0.131353 22:-0.242754 23:-0.305556 24:-0.75 25:-0.282117 26:0.811347 27:-0.407127 28:-0.390716 29:-0.340659 30:-0.684211 31:0.288289 32:-1 33:-0.0474421 34:-1 35:-0.416308 36:-0.487908 37:-0.123327 38:-0.0344313 39:0.126709 40:-0.598433 41:-0.18857 42:0.24202 43:-0.0484264 44:-0.758371 45:0.363771 46:-0.522124 47:-0.441749 48:-0.157717 49:0.41349 50:0.153772 51:-0.836798 52:-0.597795 53:1 54:-0.390117 55:-0.0302521 56:-1 57:-0.333 58:-0.453567 59:-0.0627419 60:-0.664336 61:-0.117001 62:-0.147134 63:-0.106771 64:0.11131 65:-0.659452 66:-0.76 67:-0.4315 68:0.0788047 69:0.692698 70:-1 71:0.291887 72:-0.0719632 
-0.1333333333333333 1:0.108669 2:-0.291842 3:0.2938 4:0.128596 5:-0.774543 6:-0.376571 7:0.287428 8:-0.0162297 9:0.0406735 10:-0.387601 11:-0.394722 12:-0.220364 13:-0.135409 14:0.00294634 15:0.0900838 16:-0.199583 17:-0.0855746 18:-0.376376 19:0.165493 20:0.329574 21:-0.0939641 22:0.108764 23:-0.100148 24:-0.666802 25:0.273487 26:0.420106 27:0.028443 28:0.369055 29:-0.111816 30:-0.380293 31:0.247036 32:0.538233 33:-0.360376 34:0.435783 35:0.542744 36:-0.158242 37:-0.120125 38:0.439884 39:0.270038 40:0.250576 41:0.245422 42:0.390551 43:0.449369 44:-0.129623 45:0.324551 46:0.269979 47:0.34685 48:-0.274059 49:0.285773 50:0.311073 51:-0.779509 52:-0.0474401 53:0.164967 54:-0.350935 55:0.370229 56:0.517676 57:0.140849 58:-0.0696252 59:0.247472 60:-0.521701 61:0.0405303 62:0.63619 63:-0.294303 64:0.292923 65:0.0297856 66:-0.053116 67:-0.267966 68:0.24301 69:-0.249093 70:0.00251643 71:0.47032 72:0.292109 
-0.1333333333333333 1:-0.0366849 2:-0.19389 3:0.216884 4:0.071576 5:-0.767818 6:-0.375325 7:0.387329 8:-0.0300688 9:0.0205142 10:-0.332363 11:-0.307608 12:-0.249137 13:-0.0588828 14:0.0644463 15:0.221153 16:-0.156029 17:0.112308 18:-0.382205 19:0.173637 20:0.257295 21:0.0146044 22:0.0601693 23:-0.176388 24:-0.655523 25:0.210659 26:0.550618 27:0.182769 28:0.355295 29:-0.10992 30:-0.305339 31:0.0458514 32:0.54257 33:-0.232401 34:0.353611 35:0.559569 36:-0.274765 37:-0.245239 38:0.524322 39:0.262224 40:0.162163 41:0.297289 42:0.433217 43:0.545742 44:-0.119257 45:0.402747 46:0.395359 47:0.321206 48:-0.320164 49:0.346147 50:0.394002 51:-0.712617 52:0.0412062 53:0.338619 54:-0.316307 55:0.320931 56:0.433039 57:0.328047 58:-0.214931 59:0.387675 60:-0.545644 61:-0.0400156 62:0.72495 63:-0.173428 64:0.358705 65:0.146624 66:-0.0237701 67:-0.264016 68:0.257004 69:-0.186867 70:-0.0793165 71:0.487341 72:-0.346748 
-0.1333333333333333 1:0.0947384 2:-0.192012 3:0.20249 4:-0.0513514 5:-0.638298 6:-0.413293 7:0.174412 8:-0.19745 9:0.219224 10:-0.309555 11:-0.48855 12:-0.167347 13:-0.0831638 14:0.0386109 15:0.261572 16:-0.0961869 17:0.000640615 18:-0.19322 19:0.00906658 20:0.0800448 21:0.105297 22:0.0813008 23:-0.15 24:-0.711806 25:0.305816 26:0.305762 27:0.278656 28:0.0544587 29:-0.232653 30:-0.353612 31:0.16261 32:0.370251 33:-0.211175 34:0.124403 35:0.482787 36:-0.368547 37:-0.154152 38:0.458425 39:0.457427 40:0.372761 41:0.147855 42:0.432308 43:0.492418 44:-0.36894 45:0.297304 46:0.0549386 47:0.0765839 48:-0.443246 49:0.464809 50:0.365275 51:-0.723916 52:-0.141557 53:0.20999 54:-0.252202 55:0.400576 56:0.421225 57:0.109912 58:-0.60211 59:0.161507 60:-0.616347 61:-0.182122 62:0.534142 63:-0.233029 64:0.429946 65:0.262867 66:-0.188525 67:-0.267954 68:0.14848 69:-0.222209 70:-0.219138 71:0.469311 72:-0.145964 
-0.1333333333333333 1:0.0877067 2:-0.189835 3:0.215338 4:-0.0790378 5:-0.801917 6:-0.315894 7:0.247592 8:-0.101198 9:0.0525317 10:-0.385709 11:-0.421304 12:-0.244471 13:-0.144931 14:-0.0588045 15:0.0224201 16:-0.321482 17:0.0355972 18:-0.31448 19:-0.0214866 20:0.34225 21:-0.277859 22:0.088561 23:-0.135965 24:-0.645084 25:0.35309 26:0.329173 27:0.19416 28:0.327915 29:-0.134371 30:-0.344074 31:0.376078 32:0.330711 33:-0.328028 34:0.50392 35:0.707147 36:-0.153133 37:-0.154088 38:0.484862 39:0.249958 40:0.121374 41:0.288055 42:0.487818 43:0.487449 44:-0.237138 45:0.285343 46:0.403595 47:0.223867 48:-0.386959 49:0.341866 50:0.289059 51:-0.812035 52:-0.11257 53:0.0219018 54:-0.357021 55:0.301059 56:0.478034 57:-0.176614 58:-0.311721 59:0.45376 60:-0.449074 61:0.0412657 62:0.568752 63:-0.217763 64:0.165466 65:0.147245 66:-0.0141129 67:-0.0957354 68:0.135786 69:-0.174702 70:-0.0947418 71:0.528085 72:0.36654 
-0.1333333333333333 1:0.25361 2:-0.290602 3:0.0311398 4:0.00422535 5:-0.796889 6:-0.340668 7:0.231429 8:-0.198766 9:0.0417968 10:-0.322471 11:-0.379507 12:-0.217395 13:-0.138663 14:-0.0323534 15:0.0498451 16:-0.234903 17:-0.0634286 18:-0.284217 19:0.119545 20:0.289329 21:-0.0955764 22:0.178866 23:-0.16092 24:-0.662067 25:0.27662 26:0.375002 27:0.120232 28:0.34552 29:-0.0896552 30:-0.328605 31:0.113294 32:0.573313 33:-0.236179 34:0.400951 35:0.600161 36:-0.319557 37:0.0376636 38:0.370703 39:0.263 40:0.229224 41:0.277221 42:0.393798 43:0.377938 44:-0.246335 45:0.318721 46:0.328676 47:0.204276 48:-0.283501 49:0.376614 50:0.254003 51:-0.770422 52:-0.0519063 53:0.191147 54:-0.384911 55:0.431934 56:0.50263 57:0.0253557 58:-0.179444 59:0.485953 60:-0.548128 61:0.0162817 62:0.678763 63:-0.296743 64:0.429858 65:0.0662406 66:-0.0442065 67:-0.300191 68:0.211725 69:-0.196753 70:-0.0698877 71:0.495902 72:-0.136263 
-0.1333333333333333 1:-0.000195702 2:-0.205963 3:0.211789 4:0.149833 5:-0.773792 6:-0.259138 7:0.329348 8:-0.0200912 9:0.0756054 10:-0.251331 11:-0.351906 12:-0.234755 13:-0.0571002 14:0.0372445 15:0.152402 16:-0.208128 17:0.0195122 18:-0.311111 19:0.163023 20:0.356927 21:0.0663025 22:0.0775047 23:-0.2 24:-0.651801 25:0.386871 26:0.314905 27:0.129029 28:0.305609 29:-0.0909091 30:-0.377009 31:0.270297 32:0.542867 33:-0.215433 34:0.47506 35:0.502882 36:-0.244102 37:-0.241323 38:0.529618 39:0.353015 40:0.288357 41:0.187089 42:0.357876 43:0.52464 44:-0.146761 45:0.306879 46:0.531951 47:0.392499 48:-0.241658 49:0.39543 50:0.444373 51:-0.732508 52:0.100323 53:0.113519 54:-0.387333 55:0.502432 56:0.440812 57:0.397412 58:-0.233193 59:0.337625 60:-0.521826 61:-0.0236766 62:0.567758 63:-0.20026 64:0.22603 65:0.0109091 66:-0.00474289 67:-0.259367 68:0.263954 69:-0.228973 70:-0.0563756 71:0.528871 72:0.0493154 
-0.119667001026064 1:0.121876 2:-1 3:0.664047 5:-0.52381 6:-0.131222 7:-0.917089 8:-1 9:0.541398 10:-0.0733486 11:-0.466667 12:-0.458647 13:-0.162005 14:0.0404597 15:0.878993 16:0.00238663 17:0.234694 18:-0.454545 19:-0.184642 20:-0.51637 21:0.64818 22:-0.313382 23:0.111111 24:-0.423077 25:-0.203252 26:0.0982887 27:0.846075 28:0.507177 29:-0.0714286 30:-0.173913 31:0.242369 32:-0.206155 33:-0.474834 34:0.051893 35:0.345979 36:-0.36686 37:-0.113023 38:-0.69877 39:1 40:0.633723 41:0.499723 42:0.523053 43:-0.760625 44:-0.527652 45:-0.313191 46:0.583463 47:-0.295058 48:-1 49:0.999603 50:-0.427638 51:-0.692965 52:-0.79708 53:-0.193717 54:-0.174932 55:0.575161 56:-0.306421 57:-1 58:-0.404542 59:-0.0386272 60:0.186603 61:0.0505772 62:-0.20779 63:-0.182821 64:-0.458891 65:0.0465632 66:0.0746269 67:0.0331886 68:-0.659461 69:-0.557184 70:-0.794256 71:0.256971 72:-0.116097 
-0.1333333333333333 1:0.181915 2:-0.347828 3:0.0257442 4:-0.0153061 5:-0.80464 6:-0.417689 7:0.121159 8:-0.176298 9:0.0967795 10:-0.208185 11:-0.397363 12:-0.216872 13:-0.0478445 14:-0.101195 15:0.302795 16:-0.157364 17:0.199659 18:-0.369902 19:0.0680808 20:0.0929876 21:-0.0247935 22:-0.0222149 23:-0.152807 24:-0.683564 25:0.181722 26:0.4201 27:0.101135 28:0.18102 29:-0.218107 30:-0.403822 31:0.187672 32:0.554164 33:-0.26347 34:0.16246 35:0.341051 36:-0.220734 37:-0.0787929 38:0.373202 39:0.34829 40:0.133426 41:0.159255 42:0.391043 43:0.38462 44:-0.27763 45:0.192038 46:0.233921 47:0.151567 48:-0.314821 49:0.418311 50:0.311564 51:-0.695772 52:-0.224431 53:0.158276 54:-0.208728 55:0.34574 56:0.404049 57:0.334888 58:-0.437365 59:0.125173 60:-0.69439 61:-0.112405 62:0.563653 63:-0.392472 64:0.214239 65:0.0866694 66:-0.00745156 67:-0.274101 68:0.143778 69:-0.0972964 70:-0.0303571 71:0.481004 72:-0.154478 
-0.1333333333333333 1:0.069387 2:-0.222708 3:0.12821 4:0.0359532 5:-0.766742 6:-0.335815 7:0.301368 8:-0.031719 9:0.0591341 10:-0.189302 11:-0.359318 12:-0.180557 13:-0.224361 14:0.0387014 15:0.039422 16:-0.121142 17:-0.102626 18:-0.33564 19:0.173846 20:0.282214 21:-0.0024694 22:0.0686079 23:-0.138591 24:-0.658694 25:0.266625 26:0.35006 27:0.0508039 28:0.365109 29:-0.068323 30:-0.287425 31:0.311989 32:0.418053 33:-0.344889 34:0.351443 35:0.558509 36:-0.296329 37:-0.162105 38:0.478544 39:0.231791 40:0.182962 41:0.280076 42:0.353916 43:0.50842 44:-0.113453 45:0.140203 46:0.448357 47:0.207328 48:-0.269784 49:0.264133 50:0.288345 51:-0.777377 52:-0.038248 53:0.0614284 54:-0.338579 55:0.364721 56:0.585915 57:0.224092 58:-0.327593 59:0.119768 60:-0.439376 61:-0.053908 62:0.614257 63:-0.226031 64:0.29842 65:0.0775594 66:-0.00761542 67:-0.367019 68:0.189944 69:-0.145089 70:0.0721229 71:0.672654 72:-0.204698 
-0.1333333333333333 1:0.0036943 2:-0.18268 3:0.185857 4:0.0202559 5:-0.770475 6:-0.305636 7:0.393254 8:-0.0119029 9:-0.0656061 10:-0.316927 11:-0.381102 12:-0.139841 13:-0.131414 14:-0.0750632 15:0.0294282 16:-0.218445 17:-0.0015627 18:-0.336035 19:0.11188 20:0.291439 21:-0.0420895 22:0.114763 23:-0.20738 24:-0.657591 25:0.23859 26:0.484674 27:-0.0856041 28:0.291248 29:-0.12031 30:-0.381507 31:0.24921 32:0.650809 33:-0.247672 34:0.382488 35:0.465052 36:-0.199449 37:-0.228796 38:0.546616 39:0.317456 40:0.213461 41:0.22666 42:0.376922 43:0.5452 44:-0.0963585 45:0.241654 46:0.408717 47:0.275049 48:-0.224944 49:0.365261 50:0.272463 51:-0.814235 52:-0.0648974 53:0.0655124 54:-0.290064 55:0.452811 56:0.507085 57:0.134526 58:-0.231773 59:0.296814 60:-0.581745 61:-0.0405238 62:0.655691 63:-0.306056 64:0.294167 65:0.0543667 66:-0.0742109 67:-0.225446 68:0.26727 69:-0.216678 70:-0.0581664 71:0.481054 72:0.253491 
-0.1333333333333333 1:0.0887043 2:-0.197156 3:0.425457 4:0.0723781 5:-0.792793 6:-0.254902 7:0.251743 8:-0.193662 9:0.121436 10:-0.3615 11:-0.382406 12:-0.171968 13:-0.0680058 14:-0.110889 15:0.129588 16:-0.130421 17:-0.197035 18:-0.233983 19:0.179768 20:0.41839 21:-0.237322 22:0.0952821 23:-0.101382 24:-0.67973 25:0.115686 26:0.3442 27:0.173736 28:0.221249 29:-0.359947 30:-0.411451 31:0.380578 32:0.398804 33:-0.405925 34:0.490892 35:0.377511 36:-0.331172 37:-0.131346 38:0.447928 39:0.329567 40:0.149516 41:0.0180832 42:0.559299 43:0.439821 44:-0.248537 45:0.374055 46:0.439586 47:-0.0984446 48:-0.354646 49:0.456605 50:0.275102 51:-0.801161 52:-0.0833292 53:0.248011 54:-0.306695 55:0.54803 56:0.597411 57:0.156353 58:-0.372722 59:0.256837 60:-0.574234 61:-0.080053 62:0.391342 63:-0.411049 64:0.180112 65:-0.0235161 66:0.0149031 67:-0.26283 68:0.182468 69:-0.123005 70:0.175589 71:0.489318 72:-0.253943 
-0.1333333333333333 1:0.238637 2:-0.260768 3:0.247612 4:0.0577508 5:-0.767573 6:-0.365561 7:0.180454 8:-0.11523 9:0.00759925 10:-0.278825 11:-0.343808 12:-0.185385 13:-0.0580181 14:-0.0880846 15:0.00873624 16:-0.218384 17:0.0225639 18:-0.293606 19:0.0669453 20:0.31447 21:-0.0114836 22:0.0775499 23:-0.143876 24:-0.663561 25:0.154717 26:0.414259 27:-0.0476864 28:0.330458 29:-0.171951 30:-0.324247 31:0.52091 32:0.392902 33:-0.202187 34:0.368885 35:0.356208 36:-0.373664 37:0.0350179 38:0.382404 39:0.341362 40:0.219591 41:0.152492 42:0.393405 43:0.384447 44:-0.207539 45:0.326218 46:0.479879 47:0.215278 48:-0.31111 49:0.308542 50:0.365953 51:-0.798715 52:-0.0590756 53:0.163108 54:-0.276673 55:0.474032 56:0.452894 57:0.15802 58:-0.186921 59:0.199601 60:-0.547999 61:-0.073417 62:0.626398 63:-0.328997 64:0.318554 65:0.0900005 66:-0.0763441 67:-0.254675 68:0.179886 69:-0.180125 70:-0.0968224 71:0.481871 72:-0.551164 
-0.1333333333333333 1:-0.00942688 2:-0.186479 3:0.0821309 4:0.153348 5:-0.806794 6:-0.230134 7:0.345772 8:0.00116621 9:-0.0734664 10:-0.201533 11:-0.327745 12:-0.209833 13:-0.198713 14:0.0416353 15:0.232466 16:-0.124265 17:0.0458313 18:-0.249733 19:0.259892 20:0.331042 21:-0.155323 22:0.118854 23:-0.184932 24:-0.620558 25:0.263272 26:0.352629 27:0.173933 28:0.30278 29:-0.0787172 30:-0.318832 31:0.379261 32:0.629079 33:-0.158306 34:0.273861 35:0.466568 36:-0.228708 37:-0.274308 38:0.561757 39:0.324586 40:0.279438 41:0.151758 42:0.461533 43:0.567013 44:-0.153971 45:0.274334 46:0.348711 47:0.273925 48:-0.275545 49:0.411221 50:0.345078 51:-0.751951 52:-0.064692 53:0.203576 54:-0.31315 55:0.535834 56:0.4978 57:0.147834 58:-0.136082 59:0.208961 60:-0.533263 61:-0.0199026 62:0.551782 63:-0.3195 64:0.316268 65:0.140773 66:0.0102669 67:-0.21554 68:0.189653 69:-0.0877049 70:0.0194069 71:0.535691 72:-0.0181825 
-0.1333333333333333 1:-0.00600465 2:-0.1401 3:0.285726 4:-0.00273373 5:-0.756272 6:-0.268927 7:0.367195 8:-0.0567523 9:0.145568 10:-0.279222 11:-0.348208 12:-0.179112 13:-0.0633835 14:-0.0141454 15:0.130974 16:-0.221648 17:-0.00295567 18:-0.259621 19:0.107125 20:0.279476 21:-0.109284 22:0.0906323 23:-0.181034 24:-0.64775 25:0.187941 26:0.437013 27:0.19839 28:0.175002 29:-0.164104 30:-0.32 31:0.240314 32:0.629639 33:-0.283362 34:0.484831 35:0.406382 36:-0.276855 37:-0.219353 38:0.529842 39:0.311547 40:0.113232 41:0.213973 42:0.484058 43:0.542034 44:-0.103398 45:0.322221 46:0.362387 47:0.252634 48:-0.29652 49:0.360413 50:0.36618 51:-0.735188 52:-0.0748334 53:0.18472 54:-0.316068 55:0.388191 56:0.445675 57:0.195798 58:-0.191619 59:0.187386 60:-0.555161 61:-0.0931205 62:0.643136 63:-0.299778 64:0.394903 65:0.0452214 66:-0.033432 67:-0.218413 68:0.26103 69:-0.132967 70:-0.0666312 71:0.513428 72:-0.19595 
-0.1333333333333333 1:-0.0717908 2:-0.122952 3:0.257694 4:0.0539255 5:-0.74922 6:-0.347052 7:0.401787 8:-0.00202036 9:-0.00509711 10:-0.283175 11:-0.346188 12:-0.265981 13:-0.0486561 14:-0.0243369 15:0.112704 16:-0.176665 17:-0.0167347 18:-0.354617 19:0.252121 20:0.337516 21:-0.0415946 22:0.0536319 23:-0.184874 24:-0.654659 25:0.226841 26:0.422155 27:0.302465 28:0.400952 29:-0.0884718 30:-0.352009 31:0.317621 32:0.470638 33:-0.316398 34:0.416266 35:0.559403 36:-0.257099 37:-0.290319 38:0.587409 39:0.317073 40:0.239154 41:0.216911 42:0.396235 43:0.572728 44:-0.079454 45:0.347144 46:0.430253 47:0.230934 48:-0.307966 49:0.413229 50:0.312365 51:-0.74195 52:0.0358358 53:0.193562 54:-0.350783 55:0.429246 56:0.564343 57:0.172839 58:-0.207832 59:0.357416 60:-0.493013 61:-0.0371693 62:0.552956 63:-0.211894 64:0.426244 65:0.182957 66:-0.00993271 67:-0.223572 68:0.154911 69:-0.24057 70:-0.029704 71:0.608317 72:-0.2427 
-0.1333333333333333 1:0.239472 2:-0.290958 3:0.0855051 4:0.0407098 5:-0.772791 6:-0.310047 7:0.316251 8:-0.110273 9:0.00693378 10:-0.311203 11:-0.360477 12:-0.198038 13:-0.111039 14:-0.0698743 15:0.0803993 16:-0.183824 17:0.0339731 18:-0.351812 19:0.114035 20:0.32009 21:-0.101712 22:0.0539661 23:-0.17107 24:-0.667052 25:0.276044 26:0.553571 27:0.0614173 28:0.253117 29:-0.083254 30:-0.316488 31:0.271617 32:0.525671 33:-0.276407 34:0.372578 35:0.55769 36:-0.293778 37:0.0428669 38:0.437283 39:0.230934 40:0.0651155 41:0.284651 42:0.388612 43:0.425583 44:-0.172501 45:0.324202 46:0.424157 47:0.391967 48:-0.30013 49:0.311404 50:0.360598 51:-0.785259 52:-0.0766121 53:0.1546 54:-0.331014 55:0.366863 56:0.480352 57:0.189619 58:-0.254402 59:0.191481 60:-0.530073 61:-0.0276308 62:0.547721 63:-0.240965 64:0.426903 65:0.194991 66:0.00201613 67:-0.185878 68:0.164913 69:-0.203313 70:-0.0551446 71:0.522315 72:-0.363992 
-0.1333333333333333 1:-0.0528861 2:-0.0482395 3:0.278217 4:0.0895645 5:-0.712724 6:-0.324177 7:0.424281 8:0.00147366 9:0.146205 10:-0.330768 11:-0.338362 12:-0.26837 13:-0.0615739 14:-0.0586293 15:0.0806482 16:-0.207103 17:0.00618047 18:-0.316893 19:0.159411 20:0.239405 21:-0.00989753 22:0.0472916 23:-0.205202 24:-0.690629 25:0.250809 26:0.449704 27:-0.0691859 28:0.191811 29:0.0300895 30:-0.353752 31:0.379706 32:0.457491 33:-0.322203 34:0.453875 35:0.317317 36:-0.277007 37:-0.281937 38:0.645659 39:0.339265 40:0.199426 41:0.345739 42:0.384137 43:0.625448 44:-0.090905 45:0.392206 46:0.291926 47:0.348236 48:-0.363601 49:0.466255 50:0.282498 51:-0.803939 52:0.0863223 53:0.0960329 54:-0.335053 55:0.38216 56:0.477891 57:0.132321 58:-0.271186 59:0.174855 60:-0.542828 61:0.106522 62:0.466265 63:-0.267991 64:0.225368 65:0.0494973 66:-0.0341463 67:-0.0837693 68:0.164362 69:-0.234901 70:-0.146854 71:0.374266 72:-0.11317 
-0.1333333333333333 1:0.132237 2:-0.290861 3:0.155387 4:0.0422535 5:-0.732116 6:-0.325108 7:0.190887 8:-0.0639807 9:-0.164713 10:-0.268849 11:-0.349693 12:-0.279769 13:-0.166393 14:0.0050216 15:0.0756938 16:-0.215357 17:0.0931677 18:-0.306598 19:0.235535 20:0.197874 21:0.216627 22:0.0645939 23:-0.105839 24:-0.662683 25:0.311322 26:0.480479 27:0.0632113 28:0.345885 29:-0.0804598 30:-0.290859 31:0.0927499 32:0.508187 33:-0.314624 34:0.509257 35:0.489982 36:-0.322108 37:-0.117688 38:0.392519 39:0.298219 40:0.276906 41:0.268008 42:0.442935 43:0.404352 44:-0.164987 45:0.219122 46:0.342441 47:0.0983428 48:-0.295096 49:0.359424 50:0.260898 51:-0.794348 52:0.107447 53:0.354101 54:-0.401187 55:0.441055 56:0.555378 57:0.165 58:-0.12659 59:0.425847 60:-0.566325 61:0.0843553 62:0.662015 63:-0.232322 64:0.322239 65:0.233919 66:-0.0505415 67:-0.269891 68:0.167873 69:-0.200628 70:-0.106044 71:0.54836 72:-0.391833 
-0.1333333333333333 1:0.143894 2:-0.296556 3:0.168136 4:0.0323993 5:-0.804645 6:-0.389015 7:0.224488 8:-0.131776 9:0.0256305 10:-0.304241 11:-0.350569 12:-0.152931 13:-0.0741409 14:-0.0536975 15:0.118473 16:-0.129303 17:0.105882 18:-0.294205 19:0.0579323 20:0.283056 21:0.0945037 22:0.0963113 23:-0.182927 24:-0.682643 25:0.333108 26:0.35351 27:0.0334753 28:0.300052 29:-0.134782 30:-0.317073 31:0.0571252 32:0.675394 33:-0.295378 34:0.342774 35:0.477681 36:-0.237487 37:-0.103929 38:0.429503 39:0.300769 40:0.0968887 41:0.161062 42:0.323419 43:0.414899 44:-0.210144 45:0.322928 46:0.358829 47:0.255064 48:-0.301979 49:0.421155 50:0.254268 51:-0.800778 52:0.173291 53:0.102625 54:-0.131806 55:0.425028 56:0.35915 57:0.361038 58:-0.259639 59:0.260961 60:-0.534459 61:-0.000664992 62:0.593748 63:-0.291995 64:0.290337 65:0.209345 66:-0.0532491 67:-0.266435 68:0.260958 69:-0.0896416 70:-0.0804187 71:0.49526 72:-0.266793 
-0.1333333333333333 1:0.141763 2:-0.256171 3:0.150672 4:0.0903694 5:-0.738372 6:-0.318768 7:0.271643 8:-0.0330587 9:0.0324201 10:-0.362743 11:-0.291789 12:-0.196878 13:-0.199702 14:-0.0442628 15:0.029611 16:-0.251481 17:0.0393112 18:-0.331841 19:0.0500135 20:0.30431 21:-0.0996193 22:0.0543832 23:-0.231441 24:-0.669208 25:0.211359 26:0.44074 27:0.163151 28:0.325574 29:-0.135783 30:-0.42963 31:0.346658 32:0.612838 33:-0.403412 34:0.203548 35:0.371014 36:-0.288417 37:-0.0727808 38:0.41982 39:0.208807 40:0.273458 41:0.14021 42:0.415263 43:0.405869 44:-0.0681883 45:0.269579 46:0.443793 47:0.305971 48:-0.325108 49:0.343385 50:0.29184 51:-0.805681 52:-0.180335 53:0.0701867 54:-0.354705 55:0.365645 56:0.413926 57:0.0897598 58:-0.279874 59:0.430598 60:-0.589279 61:0.0120026 62:0.608756 63:-0.308847 64:0.169124 65:0.148773 66:-0.0585061 67:-0.249712 68:0.190344 69:-0.218794 70:-0.140957 71:0.44839 72:-0.231545 
-0.1333333333333333 1:0.33613 2:-0.436638 3:0.102167 4:0.0220207 5:-0.78605 6:-0.30701 7:0.113823 8:-0.162011 9:0.0977916 10:-0.380613 11:-0.3506 12:-0.218986 13:-0.15542 14:-0.032518 15:0.132696 16:-0.0943343 17:0.0368604 18:-0.333711 19:0.0954541 20:0.262104 21:-0.114409 22:0.0411465 23:-0.232456 24:-0.668418 25:0.195992 26:0.446542 27:0.0525429 28:0.232924 29:-0.149492 30:-0.27916 31:0.176327 32:0.625798 33:-0.238898 34:0.307495 35:0.511854 36:-0.21938 37:0.0452638 38:0.354645 39:0.278203 40:0.189427 41:0.240994 42:0.476404 43:0.375883 44:-0.305298 45:0.304034 46:0.179997 47:0.151696 48:-0.29535 49:0.394277 50:0.306247 51:-0.808159 52:-0.282012 53:0.190256 54:-0.230162 55:0.339961 56:0.378945 57:0.0595974 58:-0.274089 59:0.386385 60:-0.556628 61:-0.111859 62:0.445423 63:-0.212546 64:0.385636 65:0.183466 66:-0.00867476 67:-0.223413 68:0.223938 69:-0.118895 70:-0.0124427 71:0.495622 72:-0.262462 
-0.1333333333333333 1:0.219649 2:-0.308187 3:0.123092 4:0.0352039 5:-0.769156 6:-0.348416 7:0.317961 8:-0.0953043 9:0.0239386 10:-0.276099 11:-0.35544 12:-0.227606 13:-0.125407 14:-0.0511722 15:0.0884904 16:-0.242388 17:-0.0240231 18:-0.343368 19:0.184303 20:0.325694 21:-0.0987122 22:0.133027 23:-0.232378 24:-0.688059 25:0.272218 26:0.482198 27:0.0809585 28:0.385294 29:-0.0793953 30:-0.348591 31:0.0300982 32:0.608253 33:-0.250975 34:0.302546 35:0.562533 36:-0.185542 37:0.00664409 38:0.437558 39:0.232936 40:0.186608 41:0.255045 42:0.386446 43:0.429899 44:-0.153313 45:0.288223 46:0.377869 47:0.32617 48:-0.279755 49:0.311807 50:0.307025 51:-0.805297 52:-0.0572367 53:0.167728 54:-0.314571 55:0.376282 56:0.463469 57:0.262272 58:-0.180809 59:0.33527 60:-0.600544 61:-0.0063113 62:0.597721 63:-0.223771 64:0.210176 65:0.167057 66:0.00559222 67:-0.266288 68:0.230031 69:-0.249018 70:-0.0557831 71:0.521148 72:0.208753 
-0.1333333333333333 1:0.132704 2:-0.319145 3:0.103953 4:-0.200772 5:-0.753372 6:-0.254514 7:0.131465 8:-0.217082 9:0.353279 10:-0.297805 11:-0.307479 12:-0.193277 13:-0.0672662 14:0.0637043 15:0.254195 16:-0.210365 17:-0.0531646 18:-0.260323 19:0.100705 20:0.277069 21:-0.0763529 22:0.0164251 23:-0.0696203 24:-0.670157 25:0.306428 26:0.363979 27:0.353816 28:0.547912 29:-0.091222 30:-0.4592 31:0.0953383 32:0.51205 33:-0.264712 34:0.337043 35:0.539686 36:-0.215073 37:-0.117383 38:0.378278 39:0.293191 40:0.161025 41:0.287259 42:0.403069 43:0.37872 44:-0.291297 45:0.398071 46:0.026237 47:0.384506 48:-0.402087 49:0.378837 50:0.386502 51:-0.708613 52:0.0576365 53:0.307276 54:-0.331994 55:0.262284 56:0.514659 57:0.408562 58:-0.285819 59:0.189794 60:-0.637846 61:-0.00163249 62:0.62329 63:-0.341821 64:0.259757 65:0.14284 66:0.0200343 67:-0.236177 68:0.0143505 69:-0.216915 70:0.103675 71:0.450434 72:0.0893849 
-0.1333333333333333 1:0.0323727 2:-0.11722 3:0.237413 4:0.0665138 5:-0.761194 6:-0.413359 7:0.315538 8:-0.153182 9:0.071019 10:-0.216943 11:-0.3184 12:-0.281811 13:-0.00459541 14:-0.0318233 15:0.23492 16:-0.145864 17:-0.012688 18:-0.378378 19:0.0874268 20:0.339348 21:0.00656926 22:0.0857981 23:-0.101852 24:-0.666137 25:0.367762 26:0.266635 27:0.153323 28:0.43508 29:0.0491587 30:-0.409091 31:0.375001 32:0.424926 33:-0.24262 34:0.233459 35:0.431022 36:-0.217271 37:-0.196878 38:0.543699 39:0.422658 40:0.0691245 41:0.189542 42:0.322807 43:0.524832 44:-0.219495 45:0.234283 46:0.476159 47:0.246918 48:-0.312611 49:0.558676 50:0.298611 51:-0.755652 52:0.0826376 53:0.224874 54:-0.357636 55:0.309619 56:0.329696 57:0.492066 58:-0.0986645 59:0.239734 60:-0.507993 61:0.125222 62:0.454547 63:-0.265716 64:0.159756 65:0.199268 66:0.00244978 67:-0.307856 68:0.159788 69:-0.11524 70:-0.0503031 71:0.525442 72:-0.131102 
-0.1333333333333333 1:0.190245 2:-0.430141 3:0.00651025 4:0.038806 5:-0.732323 6:-0.390802 7:0.0507408 8:-0.303697 9:-0.172273 10:-0.308122 11:-0.49375 12:-0.273183 13:-0.0889707 14:-0.20808 15:0.274431 16:-0.0162745 17:-0.0847118 18:-0.398927 19:0.298238 20:0.360366 21:-0.0516003 22:0.038996 23:-0.279835 24:-0.692623 25:0.248662 26:0.277511 27:0.137101 28:0.290584 29:-0.211087 30:-0.399194 31:0.140028 32:0.49018 33:-0.26675 34:0.418977 35:0.410571 36:-0.175319 37:-0.0580188 38:0.277663 39:0.23662 40:0.317491 41:0.0862323 42:0.531239 43:0.281013 44:-0.353935 45:0.148603 46:0.490414 47:0.185335 48:-0.30432 49:0.386609 50:0.186094 51:-0.763232 52:0.136415 53:0.125197 54:-0.302504 55:0.420055 56:0.389855 57:0.485727 58:-0.139634 59:0.458635 60:-0.545455 61:-0.0941383 62:0.647564 63:-0.356471 64:0.264466 65:0.128687 66:-0.0890931 67:-0.244148 68:0.242071 69:-0.115253 70:-0.0896397 71:0.426034 72:-0.107035 
-0.1333333333333333 1:0.113311 2:-0.243934 3:0.124679 4:-0.0124224 5:-0.826667 6:-0.498039 7:0.149191 8:-0.34258 9:0.0138678 10:-0.191116 11:-0.6 12:-0.207466 13:-0.110776 14:-0.179961 15:-0.0820803 16:-0.126932 17:0.0847029 18:-0.372973 19:0.312015 20:0.373978 21:-0.538468 22:-0.0253363 23:-0.307692 24:-0.689498 25:0.164103 26:0.279883 27:0.162334 28:0.231672 29:-0.390476 30:-0.442786 31:0.259271 32:0.425416 33:-0.228462 34:0.448443 35:0.40389 36:-0.18291 37:-0.129703 38:0.381771 39:0.304126 40:0.264511 41:-0.0363915 42:0.373381 43:0.433255 44:-0.342965 45:-0.0107505 46:0.247355 47:0.16959 48:-0.422029 49:0.205584 50:0.231459 51:-0.75648 52:0.0384128 53:0.0406542 54:-0.263586 55:0.420459 56:0.526629 57:0.306383 58:-0.167774 59:0.179454 60:-0.538988 61:-0.284057 62:0.402435 63:-0.258769 64:0.310892 65:0.0917903 66:-0.038432 67:-0.37218 68:0.203945 69:-0.168306 70:-0.0291102 71:0.482911 72:0.214382 
-0.1333333333333333 1:0.0620105 2:-0.107267 3:0.0998021 4:0.144928 5:-0.801105 6:-0.298106 7:0.299738 8:-0.0823703 9:-0.162601 10:-0.462244 11:-0.418079 12:-0.302301 13:-0.105107 14:-0.0993003 15:0.20322 16:-0.275885 17:0.047619 18:-0.304673 19:0.0971138 20:0.160567 21:-0.124443 22:0.142123 23:-0.234848 24:-0.667992 25:0.252446 26:0.22904 27:0.0736539 28:0.139065 29:-0.122316 30:-0.364341 31:0.257406 32:0.52084 33:-0.170371 34:0.305827 35:0.321455 36:-0.187503 37:-0.18957 38:0.557185 39:0.320973 40:0.245636 41:0.171439 42:0.458037 43:0.54661 44:-0.23487 45:0.183975 46:0.0888843 47:0.163369 48:-0.267826 49:0.43887 50:0.312413 51:-0.801451 52:-0.0616199 53:0.113791 54:-0.294081 55:0.391204 56:0.307436 57:0.211756 58:-0.346275 59:0.261467 60:-0.51926 61:-0.0605243 62:0.451361 63:-0.167788 64:0.228552 65:0.0885193 66:-0.134991 67:-0.19287 68:0.151174 69:-0.0812213 70:-0.00558912 71:0.38552 72:0.0425013 
-0.1333333333333333 1:0.192461 2:-0.471151 3:0.239803 4:0.111111 5:-0.778598 6:-0.280585 7:0.0881275 8:-0.171922 9:0.121436 10:-0.344325 11:-0.388582 12:-0.170725 13:-0.0843064 14:-0.0684896 15:0.0814195 16:-0.207662 17:-0.167568 18:-0.36021 19:0.0516372 20:0.305252 21:-0.138944 22:0.17481 23:-0.243421 24:-0.667511 25:0.197051 26:0.536347 27:-0.0293772 28:0.270962 29:-0.138731 30:-0.288847 31:0.180156 32:0.582717 33:-0.245723 34:0.284166 35:0.520254 36:-0.261702 37:-0.0576406 38:0.288686 39:0.265528 40:0.0419942 41:0.495639 42:0.398347 43:0.304557 44:-0.242385 45:0.280587 46:0.277489 47:0.100546 48:-0.255996 49:0.271214 50:0.367412 51:-0.815781 52:0.176302 53:0.210842 54:-0.331224 55:0.435276 56:0.434418 57:0.255926 58:-0.352868 59:0.163125 60:-0.578629 61:-0.0349933 62:0.60127 63:-0.238658 64:0.291266 65:0.0769841 66:-0.0119603 67:-0.247771 68:0.200812 69:-0.166668 70:-0.0384289 71:0.510316 72:-0.229354 
-0.1333333333333333 1:0.130159 2:-0.239815 3:0.163575 4:0.207643 5:-0.790378 6:-0.41964 7:0.261512 8:-0.179678 9:0.0479985 10:-0.294177 11:-0.198171 12:-0.113143 13:-0.10602 14:0.0178816 15:0.122111 16:-0.183942 17:0.0385878 18:-0.374613 19:0.0613978 20:0.150972 21:-0.182166 22:-0.046267 23:-0.271957 24:-0.708583 25:0.279029 26:0.350386 27:0.182293 28:0.211439 29:-0.0666667 30:-0.368996 31:0.148641 32:0.593454 33:-0.147311 34:-0.00112743 35:0.425339 36:-0.26437 37:-0.122533 38:0.499907 39:0.273137 40:0.0325965 41:0.290469 42:0.380803 43:0.490183 44:-0.279281 45:0.275279 46:0.112043 47:0.195119 48:-0.257511 49:0.38518 50:0.293388 51:-0.734203 52:-0.167855 53:0.178688 54:-0.280143 55:0.290955 56:0.283842 57:0.0180741 58:-0.384596 59:0.194587 60:-0.635712 61:-0.0275919 62:0.550341 63:-0.230803 64:0.035671 65:0.256991 66:-0.061781 67:-0.226642 68:0.196394 69:-0.164021 70:-0.0816666 71:0.40215 72:-0.186568 
-0.1333333333333333 1:0.144649 2:-0.323765 3:0.206636 4:-0.0240175 5:-0.791667 6:-0.404238 7:0.121898 8:-0.169378 9:-0.00467019 10:-0.368818 11:-0.366584 12:-0.204795 13:-0.141191 14:-0.130961 15:0.53589 16:-0.0105229 17:-0.0747664 18:-0.346667 19:0.146892 20:0.28191 21:-0.0300821 22:0.217195 23:-0.188235 24:-0.638835 25:0.263454 26:0.299592 27:-0.224076 28:0.466769 29:-0.232737 30:-0.373358 31:0.119071 32:0.505902 33:-0.27875 34:0.370219 35:0.404326 36:-0.339312 37:-0.118375 38:0.411668 39:0.411737 40:0.180537 41:0.300109 42:0.379517 43:0.420613 44:-0.365649 45:0.12499 46:0.42735 47:0.0603766 48:-0.333407 49:0.49947 50:0.216642 51:-0.759268 52:0.036346 53:0.361447 54:-0.401468 55:0.394328 56:0.590744 57:0.179325 58:-0.0730911 59:0.260892 60:-0.623913 61:-0.023931 62:0.375306 63:-0.22213 64:0.245968 65:-0.123652 66:-0.0607577 67:-0.284931 68:0.154243 69:-0.204018 70:-0.0677746 71:0.310533 72:-0.248404 
-0.1333333333333333 1:0.174567 2:-0.42746 3:0.38165 4:0.0432526 5:-0.745407 6:-0.410614 7:0.0887592 8:-0.223939 9:-0.0634533 10:-0.392585 11:-0.194444 12:-0.320943 13:-0.049351 14:0.0342468 15:0.0697072 16:-0.316481 17:0.0285714 18:-0.251546 19:0.0139571 20:0.194519 21:0.020702 22:0.0789707 23:-0.158163 24:-0.694695 25:0.225169 26:0.501408 27:0.203874 28:0.269742 29:-0.0977444 30:-0.300931 31:0.385401 32:0.444998 33:-0.344607 34:0.431723 35:0.427493 36:-0.124606 37:-0.0969155 38:0.356167 39:0.270833 40:0.176084 41:0.251594 42:0.481197 43:0.320613 44:-0.30483 45:0.309335 46:-0.016959 47:0.0391677 48:-0.243728 49:0.512444 50:0.128278 51:-0.69659 52:-0.0127015 53:0.38256 54:-0.379739 55:0.533203 56:0.305649 57:0.184941 58:-0.408905 59:0.288419 60:-0.620389 61:0.0886669 62:0.466288 63:-0.141397 64:0.215382 65:0.168253 66:-0.0209155 67:-0.159841 68:0.123167 69:-0.253609 70:0.0550193 71:0.595685 72:0.185687 
-0.1333333333333333 1:0.106548 2:-0.147913 3:0.202795 4:0.0566802 5:-0.760638 6:-0.251735 7:0.278276 8:-0.140849 9:0.059652 10:-0.346577 11:-0.341969 12:-0.264637 13:-0.0621555 14:-0.144332 15:-0.0279914 16:-0.203041 17:-0.140162 18:-0.278835 19:0.0207485 20:0.189229 21:-0.0823933 22:0.0589524 23:-0.221044 24:-0.720047 25:0.308138 26:0.330417 27:-0.164742 28:0.141739 29:-0.285714 30:-0.391414 31:0.563633 32:0.411397 33:-0.297762 34:0.232855 35:0.298657 36:-0.14747 37:-0.12799 38:0.500938 39:0.360219 40:0.254787 41:0.323291 42:0.458746 43:0.514225 44:-0.217524 45:0.133962 46:0.316834 47:-0.0389084 48:-0.242338 49:0.439432 50:0.145047 51:-0.757172 52:-0.170323 53:0.090773 54:-0.310565 55:0.376555 56:0.419507 57:0.0454437 58:-0.556955 59:0.0836022 60:-0.543233 61:-0.111106 62:0.577894 63:-0.315002 64:0.147034 65:0.0680834 66:-0.121579 67:-0.196276 68:0.262938 69:-0.205372 70:-0.109132 71:0.445645 72:-0.00161611 
-0.1333333333333333 1:-0.0189766 2:-0.128208 3:0.35843 4:0.0179856 5:-0.756368 6:-0.253458 7:0.401755 8:0.0671347 9:0.0460521 10:-0.356824 11:-0.352066 12:-0.26679 13:-0.0558294 14:0.00193928 15:0.198532 16:-0.220218 17:-0.0860058 18:-0.310665 19:0.0738322 20:0.186261 21:-0.0597894 22:0.0425787 23:-0.29717 24:-0.705279 25:0.26543 26:0.397597 27:-0.0190337 28:0.246665 29:-0.0745342 30:-0.357037 31:0.213811 32:0.611223 33:-0.300662 34:0.182551 35:0.540303 36:-0.234619 37:-0.276452 38:0.639573 39:0.326933 40:0.169476 41:0.212276 42:0.359868 43:0.623312 44:-0.118923 45:0.449871 46:0.391741 47:0.299462 48:-0.351026 49:0.470709 50:0.417465 51:-0.748481 52:-0.201332 53:0.161677 54:-0.332035 55:0.342059 56:0.482018 57:0.0155134 58:-0.368322 59:0.144392 60:-0.596075 61:-0.0850681 62:0.626095 63:-0.324766 64:0.324381 65:0.153193 66:-0.0385675 67:-0.217794 68:0.113872 69:-0.135164 70:-0.210849 71:0.448473 72:0.131222 
-0.1333333333333333 1:0.0435767 2:-0.171709 3:0.287141 4:-0.0119225 5:-0.773933 6:-0.42315 7:0.314992 8:-0.0465891 9:-0.0656187 10:-0.353337 11:-0.263699 12:-0.241317 13:-0.0909913 14:0.043436 15:0.147251 16:-0.142735 17:-0.0500689 18:-0.410714 19:0.0553215 20:0.223274 21:0.0653061 22:0.130844 23:-0.149916 24:-0.686927 25:0.35391 26:0.364157 27:0.386907 28:0.31508 29:0.00625652 30:-0.389944 31:0.145843 32:0.550251 33:-0.251932 34:0.35335 35:0.524161 36:-0.196795 37:-0.198725 38:0.52113 39:0.296215 40:0.175709 41:0.278411 42:0.359071 43:0.51298 44:-0.170819 45:0.425156 46:0.349826 47:0.347305 48:-0.286298 49:0.427536 50:0.418502 51:-0.778848 52:-0.155157 53:0.158239 54:-0.359522 55:0.320183 56:0.49264 57:0.128341 58:-0.260653 59:0.469779 60:-0.601984 61:-0.0666859 62:0.643593 63:-0.15009 64:0.367549 65:0.294671 66:-0.0486726 67:-0.318689 68:0.143847 69:-0.244031 70:-0.0398607 71:0.463802 72:0.246087 
-0.1333333333333333 1:0.0387029 2:-0.135994 3:0.216605 4:-0.0513126 5:-0.798742 6:-0.450035 7:0.320709 8:-0.10825 9:0.198057 10:-0.325639 11:-0.382353 12:-0.229736 13:-0.0607105 14:-0.0519872 15:0.10406 16:-0.165943 17:0.0730277 18:-0.369906 19:0.115311 20:0.28706 21:-0.11664 22:0.108439 23:-0.134396 24:-0.628352 25:0.250348 26:0.437243 27:0.121975 28:0.309873 29:-0.230236 30:-0.314917 31:0.374441 32:0.42431 33:-0.281132 34:0.330179 35:0.492758 36:-0.186618 37:-0.203838 38:0.553148 39:0.335167 40:0.173438 41:0.245071 42:0.293476 43:0.552966 44:-0.175902 45:0.254748 46:0.27432 47:0.13112 48:-0.353494 49:0.420761 50:0.262221 51:-0.768582 52:-0.0471123 53:0.200058 54:-0.229174 55:0.193473 56:0.407665 57:0.403088 58:-0.309513 59:0.525135 60:-0.457323 61:-0.0322537 62:0.556246 63:-0.218064 64:0.446027 65:0.0910922 66:-0.0648424 67:-0.231038 68:0.084859 69:-0.236058 70:0.0792689 71:0.504829 72:0.110508 
-0.1333333333333333 1:0.21931 2:-0.356626 3:0.122967 4:-0.0701599 5:-0.774929 6:-0.342466 7:0.114698 8:-0.164307 9:0.055781 10:-0.432685 11:-0.307359 12:-0.180318 13:-0.0833301 14:-0.0426973 15:0.0319688 16:-0.219567 17:0.0464326 18:-0.388316 19:-0.0521843 20:0.133387 21:-0.133126 22:-0.0284822 23:-0.192399 24:-0.662261 25:0.318713 26:0.421863 27:0.227578 28:0.294094 29:-0.161654 30:-0.325758 31:0.216419 32:0.551854 33:-0.340498 34:0.317581 35:0.545559 36:-0.228049 37:-0.033239 38:0.358414 39:0.362708 40:0.0498757 41:0.25221 42:0.419377 43:0.351531 44:-0.270077 45:0.222164 46:2.60844e-005 47:0.247209 48:-0.254301 49:0.401694 50:0.286154 51:-0.793211 52:0.0173205 53:0.214978 54:-0.418085 55:0.223306 56:0.397465 57:0.045868 58:-0.40405 59:0.191387 60:-0.646713 61:0.0341616 62:0.468783 63:-0.18877 64:0.29957 65:0.224163 66:-0.0101873 67:-0.211145 68:0.187174 69:-0.256392 70:-0.155732 71:0.539441 72:0.144959 
-0.1333333333333333 1:0.0113607 2:-0.0795656 3:0.334936 4:0.0535117 5:-0.76848 6:-0.265629 7:0.375506 8:-0.0226017 9:0.135738 10:-0.303378 11:-0.274005 12:-0.261538 13:-0.111372 14:-0.0322267 15:0.186304 16:-0.195929 17:-0.0756303 18:-0.466102 19:-0.0253719 20:0.114663 21:-0.304156 22:-0.0710062 23:-0.299451 24:-0.707589 25:0.112656 26:0.450704 27:0.174984 28:0.249082 29:-0.266293 30:-0.476543 31:0.571278 32:0.50016 33:-0.359461 34:0.0324318 35:0.472087 36:-0.167708 37:-0.233856 38:0.623099 39:0.382355 40:-0.0985003 41:0.29147 42:0.508811 43:0.600437 44:-0.151988 45:0.284413 46:0.365487 47:0.166674 48:-0.282407 49:0.481057 50:0.332225 51:-0.773939 52:-0.229308 53:0.245373 54:-0.514955 55:0.459868 56:0.271295 57:0.0464817 58:-0.630458 59:0.177746 60:-0.739469 61:0.00442915 62:0.391115 63:-0.326109 64:0.385307 65:0.0684042 66:-0.026971 67:-0.206887 68:0.33975 69:-0.299634 70:-0.287674 71:0.317514 72:0.194175 
-0.1234672224164708 1:0.0254217 2:-0.130445 3:0.307572 4:0.0111982 5:-0.778431 6:-0.389021 7:0.327462 8:0.0208376 9:-0.0926956 10:-0.44137 11:-0.36 12:-0.161806 13:-0.0101368 14:-0.121421 15:0.215641 16:-0.177516 17:0.0045208 18:-0.355014 19:0.132113 20:0.135579 21:0.00573654 22:0.169656 23:-0.17319 24:-0.685633 25:0.445284 26:0.421437 27:0.160849 28:0.146861 29:-0.190378 30:-0.334294 31:0.153211 32:0.482536 33:-0.289241 34:0.304514 35:0.504103 36:-0.290729 37:-0.214372 38:0.561874 39:0.369314 40:0.0793683 41:0.168604 42:0.415273 43:0.559239 44:-0.138818 45:0.240982 46:0.302737 47:0.389856 48:-0.368607 49:0.412123 50:0.344592 51:-0.746941 52:-0.0854733 53:0.136917 54:-0.283817 55:0.325505 56:0.362182 57:0.28626 58:-0.264043 59:0.367895 60:-0.59236 61:-0.0718259 62:0.657212 63:-0.236134 64:0.381055 65:0.25936 66:-0.0418354 67:-0.266901 68:0.122837 69:-0.200044 70:0.00245542 71:0.477386 72:-0.341119 
-0.1333333333333333 1:0.115638 2:-0.282922 3:0.221324 4:-0.0620985 5:-0.782178 6:-0.249646 7:0.13057 8:-0.233803 9:0.0974383 10:-0.260526 11:-0.464286 12:-0.214747 13:-0.0649438 14:-0.125771 15:0.104837 16:-0.193748 17:-0.0424107 18:-0.366483 19:0.163185 20:0.240391 21:-0.0719351 22:0.0872918 23:-0.152893 24:-0.708126 25:0.248848 26:0.421653 27:0.0412655 28:0.115201 29:-0.160613 30:-0.313692 31:0.258115 32:0.460254 33:-0.293357 34:0.399036 35:0.435011 36:-0.089209 37:-0.144022 38:0.38424 39:0.321893 40:0.258455 41:0.229764 42:0.524505 43:0.417683 44:-0.326734 45:0.195052 46:0.0423644 47:0.0678485 48:-0.282386 49:0.528531 50:0.198632 51:-0.806427 52:-0.10093 53:0.0672251 54:-0.323757 55:0.397336 56:0.334095 57:0.401275 58:-0.198205 59:0.131089 60:-0.595022 61:-0.0451328 62:0.45329 63:-0.341568 64:0.325223 65:0.157082 66:-0.0324867 67:-0.150077 68:0.249882 69:-0.222384 70:-0.0428696 71:0.546666 72:0.258531 
-0.1333333333333333 1:0.375082 2:-0.343183 3:0.0549058 4:0.0664492 5:-0.773525 6:-0.315439 7:0.200303 8:-0.158705 9:-0.0411137 10:-0.322219 11:-0.29223 12:-0.238392 13:-0.1448 14:-0.0581436 15:0.068729 16:-0.212082 17:0.0222303 18:-0.330463 19:0.158625 20:0.276039 21:-0.129865 22:0.111743 23:-0.202848 24:-0.659565 25:0.315371 26:0.359791 27:0.136667 28:0.224823 29:-0.0670241 30:-0.353304 31:0.271507 32:0.560946 33:-0.249042 34:0.387949 35:0.446377 36:-0.242417 37:0.158533 38:0.36406 39:0.271924 40:0.238496 41:0.335447 42:0.345187 43:0.365859 44:-0.231781 45:0.239498 46:0.337498 47:0.23926 48:-0.276708 49:0.317732 50:0.285032 51:-0.802918 52:-0.0237962 53:0.114877 54:-0.328581 55:0.368115 56:0.507361 57:0.109554 58:-0.275884 59:0.315133 60:-0.528865 61:-0.0509076 62:0.56594 63:-0.243023 64:0.240487 65:0.0972485 66:-0.0290219 67:-0.234763 68:0.161442 69:-0.176624 70:-0.0428787 71:0.479645 72:-0.00574979 
-0.1333333333333333 1:0.0729047 2:-0.222427 3:0.166668 4:0.105991 5:-0.749708 6:-0.308523 7:0.289306 8:-0.0681285 9:0.0769863 10:-0.271226 11:-0.32049 12:-0.135272 13:-0.0837116 14:0.0514352 15:0.213199 16:-0.237362 17:-0.0988223 18:-0.330416 19:0.00232374 20:0.225808 21:-0.00607422 22:-0.0136688 23:-0.325323 24:-0.669704 25:0.229176 26:0.381407 27:-0.0220438 28:0.145924 29:-0.0983607 30:-0.347174 31:0.319649 32:0.630713 33:-0.197174 34:0.282533 35:0.389795 36:-0.241459 37:-0.205905 38:0.568422 39:0.310878 40:0.219515 41:0.220617 42:0.405073 43:0.554854 44:-0.212857 45:0.252011 46:0.308302 47:0.151854 48:-0.244376 49:0.470719 50:0.281138 51:-0.717966 52:-0.0639433 53:0.128468 54:-0.292614 55:0.306122 56:0.391422 57:0.260881 58:-0.403003 59:0.167469 60:-0.598746 61:0.00333252 62:0.537178 63:-0.300985 64:0.168865 65:0.0328228 66:-0.0484721 67:-0.208435 68:0.195469 69:-0.099685 70:-0.160688 71:0.504273 72:0.0979364 
-0.1333333333333333 1:0.06366 2:-0.127663 3:0.32898 4:0.217039 5:-0.802607 6:-0.46976 7:0.306135 8:-0.0468587 9:0.0372879 10:-0.228715 11:-0.433526 12:-0.241867 13:-0.105883 14:-0.144776 15:0.0461791 16:-0.0733935 17:0.079689 18:-0.322115 19:0.256238 20:0.279187 21:-0.130248 22:0.0566229 23:-0.123711 24:-0.639506 25:0.257368 26:0.202462 27:-0.0174795 28:0.424923 29:-0.13574 30:-0.481153 31:0.197485 32:0.493386 33:-0.323625 34:0.23998 35:0.30963 36:-0.418893 37:-0.197359 38:0.575469 39:0.391082 40:0.273013 41:0.319206 42:0.470054 43:0.592485 44:-0.211901 45:0.104823 46:0.420329 47:-0.0465157 48:-0.299373 49:0.471856 50:0.296596 51:-0.784391 52:0.0970388 53:-0.0490779 54:-0.520311 55:0.38104 56:0.63278 57:0.367505 58:-0.201438 59:0.0923391 60:-0.666179 61:-0.0209529 62:0.308874 63:-0.232842 64:0.275644 65:0.0224703 66:-0.0484581 67:-0.230134 68:0.136853 69:-0.32578 70:-0.124933 71:0.54924 72:-0.689055 
-0.1333333333333333 1:0.124672 2:-0.293082 3:0.259205 4:-0.0408163 5:-0.79229 6:-0.311848 7:0.294817 8:-0.112133 9:0.0928613 10:-0.363603 11:-0.352965 12:-0.209111 13:-0.0285598 14:0.037866 15:0.159084 16:-0.198216 17:-0.0557078 18:-0.370472 19:0.0714468 20:0.26835 21:-0.0291296 22:0.0910161 23:-0.164194 24:-0.678079 25:0.276608 26:0.384911 27:0.0556323 28:0.338819 29:-0.0923101 30:-0.324281 31:0.135486 32:0.602999 33:-0.234199 34:0.430685 35:0.554882 36:-0.151745 37:-0.113371 38:0.45181 39:0.321885 40:0.126983 41:0.263609 42:0.394887 43:0.441446 44:-0.169817 45:0.314191 46:0.406221 47:0.18167 48:-0.268078 49:0.455628 50:0.308178 51:-0.726538 52:-0.00603428 53:0.164091 54:-0.28851 55:0.39182 56:0.366403 57:0.190116 58:-0.320239 59:0.337603 60:-0.513222 61:-0.0065556 62:0.535611 63:-0.224614 64:0.315283 65:0.17691 66:-0.0413534 67:-0.258379 68:0.242727 69:-0.168025 70:-0.0656957 71:0.526681 72:0.384582 
-0.1333333333333333 1:0.0773518 2:-0.181757 3:0.209757 4:0.0885417 5:-0.782886 6:-0.241919 7:0.293023 8:0.083622 9:-0.183975 10:-0.326528 11:-0.396304 12:-0.28381 13:-0.258098 14:-0.135774 15:0.0785621 16:-0.155688 17:-0.00714286 18:-0.266667 19:0.112631 20:0.258697 21:-0.206995 22:-0.0949246 23:-0.209906 24:-0.673333 25:0.308082 26:0.293335 27:-0.0602993 28:0.240819 29:-0.146384 30:-0.382456 31:0.324752 32:0.522603 33:-0.32413 34:0.24615 35:0.427174 36:-0.239538 37:-0.182309 38:0.539465 39:0.254637 40:0.27955 41:0.20384 42:0.473382 43:0.527758 44:-0.0816542 45:0.189817 46:0.249116 47:0.1731 48:-0.278313 49:0.325856 50:0.153988 51:-0.886691 52:-0.202721 53:0.279163 54:-0.256732 55:0.394422 56:0.446126 57:0.144722 58:-0.277798 59:0.0420921 60:-0.663009 61:0.108356 62:0.58135 63:-0.340556 64:0.222505 65:-0.0625717 66:-0.109375 67:-0.0704847 68:0.141257 69:-0.169002 70:-0.239726 71:0.444599 72:-0.102124 
-0.1333333333333333 1:0.0733752 2:-0.169639 3:0.255753 4:0.0790514 5:-0.812298 6:-0.385676 7:0.2729 8:-0.132562 9:0.0576406 10:-0.30266 11:-0.377451 12:-0.145143 13:-0.124876 14:-0.158912 15:-0.0243695 16:-0.266762 17:-0.187048 18:-0.191964 19:0.108945 20:0.346252 21:-0.1533 22:0.193937 23:-0.254261 24:-0.603774 25:0.330754 26:0.305847 27:-0.134898 28:0.263369 29:-0.327243 30:-0.273563 31:0.304334 32:0.543773 33:-0.299756 34:0.343989 35:0.489499 36:-0.244107 37:-0.176514 38:0.538866 39:0.224903 40:0.207525 41:0.217187 42:0.443143 43:0.539037 44:-0.268941 45:0.147604 46:0.2683 47:-0.0375249 48:-0.325834 49:0.371756 50:0.11045 51:-0.787511 52:-0.124976 53:-0.161702 54:-0.186099 55:0.496946 56:0.561795 57:-0.0526719 58:-0.272805 59:0.351439 60:-0.53062 61:-0.149533 62:0.36698 63:-0.297974 64:0.49974 65:0.238701 66:-0.0407459 67:-0.274873 68:0.169625 69:-0.145938 70:0.177671 71:0.566583 72:0.0216062 
-0.09031244163114224 1:0.161535 2:-0.451084 3:0.283984 4:-0.0335821 5:-0.772912 6:-0.344626 7:0.0957727 8:-0.114638 9:-0.000198994 10:-0.341557 11:-0.377279 12:-0.318574 13:-0.149052 14:0.128151 15:0.08993 16:-0.0859503 17:0.0339426 18:-0.377139 19:0.0154124 20:0.241433 21:-0.00250318 22:0.0682549 23:-0.16336 24:-0.689886 25:0.431223 26:0.618239 27:0.214093 28:0.186555 29:0.06088 30:-0.395907 31:0.0603887 32:0.348326 33:-0.235842 34:0.249877 35:0.631877 36:-0.202347 37:-0.109106 38:0.365087 39:0.273597 40:0.22523 41:0.545492 42:0.352971 43:0.348341 44:-0.2893 45:0.385672 46:0.114666 47:0.294544 48:-0.351269 49:0.461312 50:0.283966 51:-0.767734 52:-0.0738337 53:0.105504 54:-0.293616 55:0.255643 56:0.391994 57:0.0574732 58:-0.300715 59:0.321078 60:-0.532946 61:0.082199 62:0.639594 63:-0.264121 64:0.586346 65:0.24291 66:-0.0320737 67:-0.216405 68:0.0606304 69:-0.110131 70:-0.172586 71:0.50809 72:0.0273417 
-0.1333333333333333 1:0.0561482 2:-0.148629 3:0.148721 4:0.0496183 5:-0.782901 6:-0.282716 7:0.335602 8:-0.0578568 9:0.122111 10:-0.30152 11:-0.2832 12:-0.138004 13:-0.186942 14:-0.0132483 15:0.0443529 16:-0.255762 17:-0.0237718 18:-0.327791 19:0.0650874 20:0.257562 21:-0.0344935 22:0.105978 23:-0.0252708 24:-0.726535 25:0.205572 26:0.48548 27:0.316861 28:0.273585 29:-0.140668 30:-0.366265 31:0.257671 32:0.53857 33:-0.537969 34:0.357413 35:0.4567 36:-0.28731 37:-0.197089 38:0.543798 39:0.353144 40:0.349506 41:0.310396 42:0.359207 43:0.574489 44:-0.136925 45:0.077296 46:0.496316 47:0.207907 48:-0.351146 49:0.400705 50:0.33757 51:-0.854933 52:-0.195605 53:0.3118 54:-0.453133 55:0.328956 56:0.435212 57:0.131973 58:-0.322836 59:0.359823 60:-0.515831 61:0.0891042 62:0.591292 63:-0.23421 64:0.225215 65:7.99552e-005 66:0.020783 67:-0.302751 68:0.149828 69:-0.0814586 70:-0.256955 71:0.532316 72:-0.202476 
-0.1333333333333333 1:0.095834 2:-0.179904 3:0.121427 4:0.24 5:-0.837681 6:-0.426331 7:0.211705 8:-0.183995 9:0.206055 10:-0.337331 11:-0.322314 12:-0.210221 13:-0.137001 14:-0.0299743 15:0.0635488 16:-0.131143 17:0.156181 18:-0.107527 19:-0.0342118 20:0.218312 21:-0.0799244 22:-0.00323392 23:-0.0968586 24:-0.650718 25:0.401855 26:0.380038 27:0.034458 28:0.068521 29:-0.178982 30:-0.445455 31:0.176648 32:0.39917 33:-0.286273 34:0.273758 35:0.368618 36:-0.390141 37:-0.161933 38:0.514584 39:0.4477 40:0.183608 41:0.214107 42:0.373383 43:0.512296 44:-0.327791 45:0.0945189 46:0.142957 47:0.389046 48:-0.415956 49:0.509994 50:0.159056 51:-0.798685 52:0.0489657 53:0.105642 54:-0.283849 55:0.352981 56:0.253179 57:0.243553 58:-0.427055 59:0.254249 60:-0.513877 61:-0.115514 62:0.815551 63:-0.197301 64:0.173828 65:-0.079412 66:-0.135935 67:-0.214835 68:0.0461999 69:-0.271424 70:-0.0904064 71:0.407737 72:-0.239563 
-0.1333333333333333 1:0.145149 2:-0.381623 3:0.328606 4:-0.030303 5:-0.732558 6:-0.306952 7:0.0806354 8:-0.0819847 9:0.141169 10:-0.248197 11:-0.337278 12:-0.249467 13:-0.102377 14:-0.0615177 15:0.0660459 16:-0.109941 17:-0.190761 18:-0.310502 19:0.143533 20:0.286393 21:-0.0837822 22:0.12471 23:-0.128788 24:-0.691076 25:0.156884 26:0.277138 27:0.029917 28:0.349325 29:-0.258392 30:-0.208845 31:0.329165 32:0.481016 33:-0.257921 34:0.265494 35:0.425235 36:-0.252197 37:-0.110385 38:0.342612 39:0.308997 40:0.278127 41:0.374228 42:0.438433 43:0.377811 44:-0.250184 45:0.132636 46:0.397169 47:-0.00735773 48:-0.342438 49:0.32333 50:0.34044 51:-0.757194 52:-0.155752 53:0.110677 54:-0.269649 55:0.419746 56:0.348009 57:0.377358 58:-0.196002 59:0.40481 60:-0.592815 61:0.00544133 62:0.58586 63:-0.198924 64:0.127146 65:-0.169716 66:-0.0914597 67:-0.22805 68:0.208699 69:-0.200987 70:-0.0726114 71:0.470287 72:-0.0267117 
-0.1333333333333333 1:0.0643073 2:-0.129776 3:0.0769321 4:0.186957 5:-0.792593 6:-0.307436 7:0.291474 8:-0.130691 9:0.00695893 10:-0.333105 11:-0.58794 12:-0.295238 13:-0.0741811 14:-0.0792542 15:0.0345966 16:-0.155993 17:-0.168067 18:-0.0625 19:0.173386 20:0.161664 21:0.0745357 22:0.117889 23:-0.0189873 24:-0.613065 25:0.145184 26:0.481095 27:-0.0158228 28:0.112892 29:-0.168831 30:-0.339286 31:0.13467 32:0.558016 33:-0.25958 34:0.335657 35:0.476916 36:-0.294975 37:-0.186497 38:0.553756 39:0.317157 40:-0.0856276 41:0.0148447 42:0.441929 43:0.535648 44:-0.278142 45:0.24709 46:0.48707 47:0.213457 48:-0.283836 49:0.384736 50:0.233425 51:-0.746578 52:0.0281119 53:0.327739 54:-0.193918 55:0.378027 56:0.503728 57:0.162893 58:-0.196268 59:0.263933 60:-0.51532 61:0.0033257 62:0.472781 63:-0.261051 64:0.211625 65:0.058572 66:-0.0371991 67:-0.254132 68:0.265243 69:-0.110222 70:0.101082 71:0.468139 72:-0.404012 
-0.1333333333333333 1:0.104426 2:-0.170895 3:0.349959 4:-0.0248307 5:-0.766082 6:-0.249691 7:0.18183 8:-0.0148234 9:-0.039543 10:-0.361419 11:-0.297297 12:-0.277419 13:-0.211006 14:-0.159643 15:0.0619657 16:-0.18821 17:-0.0368664 18:-0.275472 19:-0.146123 20:0.269428 21:-0.0204565 22:0.0800779 23:-0.259868 24:-0.725869 25:0.292685 26:0.397765 27:0.0925532 28:0.186918 29:-0.285714 30:-0.393939 31:0.559471 32:0.325448 33:-0.523073 34:0.26864 35:0.492513 36:-0.382548 37:-0.139413 38:0.490366 39:0.316771 40:0.139731 41:0.330458 42:0.423472 43:0.485528 44:-0.225006 45:0.0715809 46:0.136048 47:0.317756 48:-0.350284 49:0.421167 50:0.154665 51:-0.85623 52:-0.341028 53:0.284627 54:-0.43822 55:0.50248 56:0.284027 57:0.116478 58:-0.265167 59:-0.120887 60:-0.61078 61:-0.0730552 62:0.620384 63:-0.199832 64:0.164462 65:-0.0184195 66:-0.1 67:-0.361933 68:0.170196 69:-0.232384 70:0.156818 71:0.303852 72:-0.208989 
-0.1333333333333333 1:-0.08732 2:-0.0646842 3:0.293044 4:0.0219058 5:-0.764833 6:-0.369568 7:0.456276 8:-0.0302029 9:0.0231398 10:-0.289958 11:-0.327273 12:-0.221568 13:-0.0754752 14:0.0611862 15:0.353402 16:-0.209486 17:-0.200094 18:-0.358192 19:0.243753 20:0.277447 21:0.0391552 22:0.137284 23:-0.238556 24:-0.679131 25:0.241046 26:0.434574 27:0.111455 28:0.172345 29:-0.181287 30:-0.306533 31:0.274153 32:0.498506 33:-0.321793 34:0.471629 35:0.483651 36:-0.198977 37:-0.33996 38:0.663315 39:0.430727 40:0.233554 41:0.182863 42:0.398609 43:0.650665 44:-0.114546 45:0.265519 46:0.372748 47:0.170652 48:-0.311992 49:0.621998 50:0.222083 51:-0.740872 52:0.0256 53:0.215996 54:-0.340072 55:0.570669 56:0.458409 57:0.317927 58:-0.0611586 59:0.0728363 60:-0.586349 61:-0.00219178 62:0.435117 63:-0.247033 64:0.246329 65:0.0829662 66:0.0217006 67:-0.303522 68:0.165785 69:-0.154918 70:-0.0545495 71:0.606711 72:-0.00353505 
-0.09988666825965807 1:0.0676001 2:-0.164068 3:0.336474 4:0.130435 5:-0.815126 6:-0.183391 7:0.181373 8:-0.116938 9:0.139011 10:-0.111117 11:-0.469767 12:0.0629042 13:0.0790479 14:0.0252523 15:0.0107207 16:-0.256124 17:-0.0618337 18:-0.420495 19:0.102661 20:0.16202 21:-0.250981 22:0.0320666 23:-0.213918 24:-0.691176 25:0.0222278 26:0.45466 27:0.321808 28:0.0671937 29:-0.0849673 30:-0.233333 31:0.0988994 32:0.500752 33:-0.118341 34:0.128231 35:0.446867 36:-0.324497 37:-0.173843 38:0.45741 39:0.304959 40:0.089302 41:0.185485 42:0.31869 43:0.441003 44:-0.263159 45:0.394783 46:0.129403 47:0.365878 48:-0.139224 49:0.453309 50:0.404557 51:-0.621321 52:0.0492988 53:-0.0556613 54:-0.368324 55:0.635175 56:0.250579 57:0.245133 58:-0.462017 59:0.37339 60:-0.721449 61:-0.369894 62:0.640821 63:-0.406449 64:0.527193 65:0.118237 66:0.0889213 67:-0.112395 68:0.288943 69:-0.181303 70:-0.265718 71:0.516268 72:-0.101543 
-0.1333333333333333 1:-0.01257 2:-0.0446543 3:0.165215 4:0.052795 5:-0.774059 6:-0.372549 7:0.406774 8:-0.0430906 9:-0.00460599 10:-0.331284 11:-0.339578 12:-0.18913 13:-0.0711534 14:-0.202161 15:0.0300676 16:-0.248085 17:-0.0815779 18:-0.300275 19:0.131401 20:0.212769 21:-0.0566927 22:0.212148 23:-0.0625 24:-0.683246 25:0.261207 26:0.313617 27:0.159674 28:0.383592 29:-0.352263 30:-0.353591 31:0.418784 32:0.48521 33:-0.32956 34:0.212389 35:0.405022 36:-0.317828 37:-0.245846 38:0.611599 39:0.286201 40:0.238747 41:0.347013 42:0.465758 43:0.6257 44:-0.166052 45:0.304108 46:0.303202 47:0.0900687 48:-0.396894 49:0.352356 50:0.398424 51:-0.849469 52:-0.174804 53:0.128038 54:-0.421665 55:0.366378 56:0.477803 57:0.127541 58:-0.136944 59:0.445328 60:-0.609941 61:-0.0170983 62:0.471021 63:-0.231872 64:0.243955 65:0.0846963 66:-0.0314748 67:-0.247639 68:0.143877 69:-0.287963 70:0.00955192 71:0.371019 72:-0.173381 
-0.1333333333333333 1:0.0220336 2:-0.0541593 3:0.269107 4:0.0212766 5:-0.765051 6:-0.262321 7:0.384765 8:-0.086409 9:-0.00923346 10:-0.294821 11:-0.38914 12:-0.276743 13:-0.0787833 14:-0.142217 15:0.219643 16:-0.209891 17:0.0535211 18:-0.333333 19:0.0426602 20:0.0505401 21:-0.131266 22:-0.0118577 23:-0.107143 24:-0.717617 25:0.217804 26:0.301583 27:-0.0385307 28:0.0211514 29:-0.0955199 30:-0.481481 31:0.338007 32:0.532307 33:-0.319128 34:0.0828893 35:0.265975 36:-0.201092 37:-0.225174 38:0.636704 39:0.356977 40:0.136606 41:0.433439 42:0.414375 43:0.641521 44:-0.212 45:0.17303 46:0.0680305 47:0.111814 48:-0.279973 49:0.408732 50:0.235417 51:-0.726707 52:-0.198718 53:0.101987 54:-0.254887 55:0.327654 56:0.312091 57:0.0931902 58:-0.300253 59:0.0595092 60:-0.742765 61:0.0890954 62:0.457753 63:-0.317015 64:-0.0805705 65:-0.00777408 66:-0.149342 67:-0.171979 68:0.143881 69:-0.164891 70:-0.071199 71:0.214158 72:0.120093 
-0.1333333333333333 1:0.286835 2:-0.368878 3:0.126577 4:-0.0709788 5:-0.771272 6:-0.297023 7:0.224084 8:-0.115411 9:-0.0440962 10:-0.325651 11:-0.337243 12:-0.200918 13:-0.199136 14:-0.0938384 15:-0.0275226 16:-0.15714 17:0.0352482 18:-0.343711 19:0.0925198 20:0.275933 21:-0.127516 22:0.13375 23:-0.160935 24:-0.667749 25:0.259769 26:0.474374 27:0.100246 28:0.24147 29:-0.0733012 30:-0.350301 31:0.0864975 32:0.709804 33:-0.320151 34:0.316578 35:0.454986 36:-0.276746 37:0.0423119 38:0.371578 39:0.159122 40:0.149549 41:0.347828 42:0.407726 43:0.388846 44:-0.168018 45:0.328013 46:0.319306 47:0.159693 48:-0.331979 49:0.312926 50:0.240505 51:-0.815626 52:0.00303011 53:0.135713 54:-0.374116 55:0.249961 56:0.559203 57:0.054802 58:-0.243408 59:0.271986 60:-0.526536 61:-0.00476176 62:0.550477 63:-0.26754 64:0.314394 65:0.134378 66:-0.0204368 67:-0.269844 68:0.222538 69:-0.23196 70:-0.082658 71:0.512191 72:-0.16748 
-0.1333333333333333 1:0.00882803 2:-0.126605 3:0.185886 4:0.0564784 5:-0.77265 6:-0.378468 7:0.348206 8:-0.0284807 9:0.0900492 10:-0.262324 11:-0.345997 12:-0.228571 13:-0.0598582 14:-0.0123807 15:0.15607 16:-0.167019 17:0.0982839 18:-0.250986 19:0.177659 20:0.27496 21:-0.00647788 22:0.110437 23:-0.210744 24:-0.634146 25:0.173879 26:0.432443 27:0.0548742 28:0.32388 29:-0.092437 30:-0.283439 31:0.407861 32:0.524854 33:-0.137664 34:0.288047 35:0.4265 36:-0.294961 37:-0.245912 38:0.56634 39:0.407767 40:0.229227 41:0.196222 42:0.434548 43:0.542444 44:-0.119889 45:0.370092 46:0.385132 47:0.246657 48:-0.23626 49:0.563223 50:0.355722 51:-0.796404 52:0.0204783 53:0.16296 54:-0.289517 55:0.351678 56:0.592415 57:0.357431 58:-0.191716 59:0.249138 60:-0.644261 61:0.124442 62:0.492921 63:-0.277971 64:0.253649 65:0.147158 66:-0.0351821 67:-0.177711 68:0.149188 69:-0.122101 70:-0.0391962 71:0.522775 72:-0.115751 
-0.1333333333333333 1:0.0918196 2:-0.345657 3:0.200567 4:0.0331126 5:-0.722628 6:-0.281734 7:0.15889 8:-0.129693 9:0.168013 10:-0.313232 11:-0.35461 12:-0.208791 13:-0.107284 14:-0.0634747 15:0.0679717 16:-0.123026 17:-0.00513875 18:-0.331818 19:0.259687 20:0.335828 21:0.151734 22:0.343386 23:-0.181985 24:-0.683884 25:0.228524 26:0.597778 27:-0.122754 28:0.450342 29:-0.0727763 30:-0.401302 31:0.0537692 32:0.383956 33:-0.328679 34:0.572884 35:0.526585 36:-0.297987 37:-0.156417 38:0.370458 39:0.188055 40:0.247161 41:0.211096 42:0.369831 43:0.321772 44:-0.176355 45:0.361576 46:0.546346 47:0.359406 48:-0.255404 49:0.49235 50:0.201341 51:-0.772723 52:0.010007 53:0.0961278 54:-0.358867 55:0.508236 56:0.601051 57:0.195123 58:0.0926003 59:0.379361 60:-0.514489 61:0.090437 62:0.520004 63:-0.118178 64:0.294418 65:-0.00513196 66:-0.0338645 67:-0.287864 68:0.17911 69:-0.206372 70:0.0499826 71:0.594463 72:-0.27303 
-0.1333333333333333 1:0.130207 2:-0.308919 3:0.16195 4:-0.119086 5:-0.769424 6:-0.27451 7:0.231292 8:-0.183224 9:0.235759 10:-0.293734 11:-0.219409 12:-0.272999 13:-0.148888 14:0.00895461 15:-0.00458016 16:-0.199826 17:-0.102041 18:-0.3309 19:0.0685306 20:0.270493 21:-0.120987 22:-0.00784034 23:-0.0904573 24:-0.632089 25:0.334251 26:0.484608 27:0.101879 28:0.329434 29:-0.0859564 30:-0.413572 31:0.196908 32:0.663938 33:-0.374505 34:0.316574 35:0.53742 36:-0.209102 37:-0.120129 38:0.396995 39:0.313721 40:0.0954657 41:0.168115 42:0.471874 43:0.420272 44:-0.199006 45:0.292653 46:0.271511 47:0.269179 48:-0.300389 49:0.316835 50:0.323919 51:-0.790534 52:-0.106351 53:0.30071 54:-0.402076 55:0.362899 56:0.458367 57:0.207153 58:-0.310036 59:0.288204 60:-0.601946 61:-0.0781572 62:0.604096 63:-0.283726 64:0.415208 65:0.195325 66:0.00278552 67:-0.248304 68:0.270658 69:-0.352835 70:-0.0127159 71:0.501452 72:0.0374164 
-0.1333333333333333 1:0.048879 2:-0.0667417 3:0.343565 4:-0.429448 5:-0.784038 6:-0.300151 7:0.305712 8:-0.127986 9:-0.0293827 10:-0.445124 11:-0.371429 12:-0.0888031 13:-0.0917697 14:-0.200894 15:0.354532 16:-0.268615 17:0.284178 18:-0.172414 19:0.112859 20:0.114856 21:-0.0304559 22:-0.00181159 23:-0.137168 24:-0.706667 25:0.242966 26:0.363973 27:-0.109743 28:0.19184 29:-0.249395 30:-0.426829 31:0.232564 32:0.535689 33:-0.295707 34:0.321791 35:0.290045 36:-0.168993 37:-0.203977 38:0.603715 39:0.341445 40:0.0518915 41:0.0973809 42:0.2865 43:0.600131 44:-0.325052 45:0.153496 46:0.397147 47:0.369046 48:-0.302617 49:0.540262 50:0.265669 51:-0.812989 52:-0.0362812 53:0.117125 54:-0.25526 55:0.287447 56:0.405918 57:0.169543 58:-0.251534 59:0.00827307 60:-0.555656 61:-0.170704 62:0.331873 63:-0.285225 64:0.414839 65:0.107874 66:-0.0225922 67:-0.233704 68:0.159102 69:0.0906172 70:-0.277121 71:0.40582 72:0.0516496 
-0.1333333333333333 1:0.0984085 2:-0.288827 3:0.000327078 4:-0.046729 5:-0.748918 6:-0.237528 7:0.180748 8:-0.11406 9:0.194567 10:-0.518403 11:-0.396648 12:-0.147929 13:-0.0490932 14:-0.0655165 15:0.0725052 16:-0.139722 17:-0.163145 18:-0.295393 19:-0.00366983 20:0.18856 21:-0.0589314 22:0.200784 23:-0.341398 24:-0.67663 25:0.239475 26:0.470323 27:0.2022 28:0.221818 29:0.00502513 30:-0.362245 31:0.0493527 32:0.603481 33:-0.256037 34:0.28723 35:0.458379 36:-0.225482 37:-0.158077 38:0.458182 39:0.195751 40:0.0843865 41:0.177008 42:0.470998 43:0.434552 44:-0.280064 45:0.606738 46:0.183364 47:0.162892 48:-0.418441 49:0.389741 50:0.45504 51:-0.77074 52:-0.212899 53:0.193251 54:-0.313237 55:0.276203 56:0.302582 57:0.341816 58:-0.301015 59:0.113942 60:-0.554765 61:-0.0532278 62:0.380349 63:-0.27063 64:0.36817 65:0.255553 66:0.0451128 67:-0.192574 68:0.0631317 69:-0.30423 70:0.042883 71:0.605407 72:-0.0847648 
-0.1333333333333333 1:0.110787 2:-0.206154 3:0.234198 4:-0.0695581 5:-0.739872 6:-0.418233 7:0.310445 8:-0.0850183 9:0.0538218 10:-0.306749 11:-0.276824 12:-0.157083 13:-0.10206 14:0.0562172 15:0.125911 16:-0.26111 17:0.0426005 18:-0.321486 19:0.0353214 20:0.162129 21:-0.199513 22:-0.0477053 23:-0.254109 24:-0.663551 25:0.269709 26:0.320238 27:0.347365 28:0.408103 29:-0.147797 30:-0.419732 31:0.254214 32:0.609997 33:-0.296192 34:0.0606914 35:0.453762 36:-0.304232 37:-0.14109 38:0.523789 39:0.25812 40:0.153865 41:0.239483 42:0.471636 43:0.521205 44:-0.175062 45:0.352317 46:0.173678 47:0.177004 48:-0.340501 49:0.473373 50:0.309394 51:-0.730177 52:-0.166713 53:0.155275 54:-0.381071 55:0.285161 56:0.312252 57:0.101893 58:-0.428241 59:0.434667 60:-0.664973 61:-0.03469 62:0.698306 63:-0.192795 64:0.142497 65:0.13314 66:-0.0778574 67:-0.288021 68:0.17147 69:-0.217054 70:-0.139064 71:0.503009 72:-0.3513 
-0.1333333333333333 1:0.0562243 2:-0.175369 3:0.199017 4:0.075188 5:-0.747204 6:-0.40402 7:0.307208 8:0.0317857 9:0.0515098 10:-0.27896 11:-0.397306 12:-0.266497 13:-0.123818 14:-0.104246 15:0.104284 16:-0.154432 17:0.121569 18:-0.425806 19:0.153299 20:0.247747 21:-0.1206 22:-0.067347 23:-0.3125 24:-0.649351 25:0.216956 26:0.474051 27:-0.0496212 28:0.310729 29:-0.0118153 30:-0.37931 31:0.245623 32:0.476557 33:-0.308811 34:0.26708 35:0.45561 36:-0.294727 37:-0.189414 38:0.557133 39:0.181254 40:0.128467 41:0.25743 42:0.42845 43:0.525513 44:-0.159598 45:0.456837 46:0.302152 47:0.419432 48:-0.301355 49:0.381802 50:0.381647 51:-0.802039 52:-0.076142 53:0.0675961 54:-0.48571 55:0.26271 56:0.595859 57:-0.0227446 58:-0.400643 59:0.206714 60:-0.492534 61:0.0328938 62:0.563246 63:-0.279617 64:0.317138 65:0.169784 66:-0.0872253 67:-0.214063 68:0.115954 69:-0.188891 70:-0.0445022 71:0.399632 72:-0.218372 
-0.1333333333333333 1:0.0177336 2:0.112146 3:0.573373 4:0.0344828 5:-0.894737 6:0.303167 7:0.383676 8:-0.181114 9:0.150259 10:-0.528141 11:0.0714286 12:-0.466667 13:-0.0203518 14:-0.0522623 15:0.306754 16:0.117375 17:-0.0075188 18:-0.5 19:0.100753 20:0.101822 21:-0.0461954 22:0.0402576 24:-0.586207 25:0.0110677 26:0.432976 27:0.404065 28:0.143695 29:-0.372822 30:-0.619048 31:0.225247 32:0.330587 33:-0.323588 34:0.229081 35:0.374951 36:-0.342716 37:-0.227867 38:0.633498 39:0.525302 40:0.0840323 41:0.567711 42:0.495218 43:0.649487 44:-0.30105 45:0.337421 46:0.144614 47:-0.211804 48:-0.467422 49:0.566419 50:0.243546 51:-0.722779 52:0.211751 53:-0.00405403 54:-0.144084 55:0.702577 56:0.293159 57:0.300403 58:-0.481564 59:0.231723 60:-0.763834 61:0.222667 62:0.119806 63:-0.310573 64:0.506617 65:0.112984 66:-0.211111 67:-0.0607726 68:0.145843 69:-0.6696 70:-0.127505 71:0.431013 72:-0.113905 
-0.1333333333333333 1:0.0468508 2:-0.169227 3:0.0561345 4:-0.0230263 5:-0.812766 6:-0.289891 7:0.321668 8:-0.0588094 9:-0.10962 10:-0.253465 11:-0.318681 12:-0.131023 13:-0.0995988 14:-0.178717 15:0.0385089 16:-0.175301 17:-0.061138 18:-0.348416 19:0.261603 20:0.300662 21:-0.0638819 22:0.0640577 23:-0.082774 24:-0.598131 25:0.274866 26:0.367058 27:0.14137 28:0.279031 29:-0.0801394 30:-0.24805 31:0.109023 32:0.558275 33:-0.28457 34:0.641201 35:0.508168 36:-0.256987 37:-0.2224 38:0.567736 39:0.311514 40:0.254705 41:0.200933 42:0.396296 43:0.580728 44:-0.218758 45:0.203504 46:0.318047 47:0.281251 48:-0.276778 49:0.318839 50:0.305303 51:-0.829958 52:-0.0871644 53:0.223878 54:-0.342018 55:0.310818 56:0.358945 57:0.295413 58:-0.0292761 59:0.49905 60:-0.362128 61:0.00711221 62:0.511267 63:-0.281436 64:0.39302 65:0.108171 66:0.0152526 67:-0.204109 68:0.310862 69:-0.220252 70:0.0587668 71:0.48493 72:-0.22195 
-0.1333333333333333 1:0.0322036 2:-0.102997 3:0.220361 4:0.0752212 5:-0.770574 6:-0.347766 7:0.347173 8:-0.0106875 9:0.152372 10:-0.349544 11:-0.379581 12:-0.28725 13:-0.0393024 14:-0.096265 15:0.151752 16:-0.211052 17:0.0761359 18:-0.347053 19:-0.0271863 20:0.223892 21:-0.336355 22:-0.0167077 23:-0.234694 24:-0.67003 25:0.156327 26:0.418006 27:0.159512 28:0.164723 29:-0.118227 30:-0.336066 31:0.307257 32:0.532365 33:-0.194996 34:0.127367 35:0.418166 36:-0.22977 37:-0.213255 38:0.596778 39:0.293227 40:0.0244507 41:0.355354 42:0.442363 43:0.567179 44:-0.134506 45:0.409927 46:0.336455 47:0.202637 48:-0.336875 49:0.542272 50:0.250764 51:-0.757516 52:-0.207572 53:0.0427163 54:-0.286008 55:0.159869 56:0.353584 57:0.0652279 58:-0.444202 59:0.191364 60:-0.608467 61:-0.0111611 62:0.580933 63:-0.326233 64:0.0648346 65:0.174298 66:-0.0351873 67:-0.172449 68:0.179375 69:-0.177659 70:-0.127912 71:0.42502 72:-0.0643331 
-0.1333333333333333 1:0.211057 2:-0.35858 3:0.122761 4:0.0866873 5:-0.767548 6:-0.317088 7:0.245298 8:-0.0907808 9:0.0490694 10:-0.290813 11:-0.328727 12:-0.176405 13:-0.129948 14:-0.0110136 15:0.125257 16:-0.207736 17:0.0584081 18:-0.325581 19:0.00631767 20:0.355157 21:-0.0867372 22:0.0909914 23:-0.144082 24:-0.674273 25:0.185172 26:0.528481 27:0.163009 28:0.322923 29:-0.0793651 30:-0.321948 31:0.278188 32:0.661099 33:-0.262807 34:0.257175 35:0.539877 36:-0.255874 37:-0.0584079 38:0.423643 39:0.249852 40:0.155726 41:0.321091 42:0.405087 43:0.413541 44:-0.203004 45:0.39689 46:0.474357 47:0.280935 48:-0.22203 49:0.384602 50:0.341913 51:-0.785017 52:0.00250648 53:0.205641 54:-0.334321 55:0.438711 56:0.509114 57:0.180655 58:-0.263628 59:0.351724 60:-0.615322 61:-0.0011301 62:0.659743 63:-0.223381 64:0.322183 65:0.102015 66:-0.00994575 67:-0.253182 68:0.269155 69:-0.203558 70:-0.13936 71:0.542518 72:-0.140814 
-0.1333333333333333 1:0.114794 2:-0.260935 3:0.242818 4:0.0421053 5:-0.75873 6:-0.296864 7:0.169304 8:-0.14613 9:-0.0633599 10:-0.371432 11:-0.280952 12:-0.196671 13:-0.193232 14:-0.0417539 15:0.266143 16:-0.191408 17:0.00881834 18:-0.356077 19:0.226789 20:0.237336 21:-0.17392 22:0.0024426 23:-0.27665 24:-0.685579 25:0.333957 26:0.380962 27:-0.0576837 28:0.163102 29:0.044454 30:-0.287257 31:0.193099 32:0.405185 33:-0.26532 34:0.475702 35:0.452889 36:-0.236942 37:-0.122163 38:0.427594 39:0.307387 40:0.0533737 41:0.377061 42:0.313557 43:0.404436 44:-0.265727 45:0.202588 46:0.282335 47:0.0923175 48:-0.382256 49:0.300009 50:0.169042 51:-0.805832 52:-0.0687248 53:0.381803 54:-0.258128 55:0.31442 56:0.392351 57:0.128048 58:-0.4179 59:0.151449 60:-0.50989 61:-0.14354 62:0.60989 63:-0.276993 64:0.586909 65:0.144501 66:-0.0682515 67:-0.242378 68:0.10304 69:-0.183143 70:-0.006782 71:0.359299 72:0.150887 
-0.1333333333333333 1:-0.0201657 2:-0.0658052 3:0.115435 4:-0.0557769 5:-0.769339 6:-0.334858 7:0.420509 8:0.0207189 9:-0.0248422 10:-0.341913 11:-0.482353 12:-0.141387 13:-0.159814 14:-0.271591 15:0.0405737 16:-0.0789066 17:0.0200501 18:-0.317158 19:-0.035898 20:0.309645 21:-0.172592 22:0.11301 23:-0.140212 24:-0.651376 25:0.277202 26:0.441646 27:0.0186154 28:0.361813 29:-0.210337 30:-0.306043 31:0.326272 32:0.574606 33:-0.351512 34:0.248213 35:0.592503 36:-0.250862 37:-0.26917 38:0.661129 39:0.215211 40:0.217637 41:0.280221 42:0.357736 43:0.644532 44:-0.129249 45:0.215678 46:0.266257 47:0.348956 48:-0.281413 49:0.311421 50:0.180187 51:-0.837317 52:-0.102815 53:0.155795 54:-0.348314 55:0.592582 56:0.377855 57:0.00211182 58:-0.392857 59:0.293305 60:-0.588469 61:-0.0697815 62:0.709152 63:-0.36217 64:0.337677 65:0.0821372 66:0.00421433 67:-0.223417 68:0.176432 69:-0.158488 70:-0.0559486 71:0.436112 72:0.0197423 
-0.1333333333333333 1:0.23128 2:-0.381874 3:0.121855 4:0.0914697 5:-0.757433 6:-0.352471 7:0.112524 8:-0.119111 9:0.0503404 10:-0.278348 11:-0.35446 12:-0.216839 13:-0.112669 14:0.0285 15:0.126092 16:-0.260563 17:-0.0983607 18:-0.310855 19:0.0237198 20:0.215895 21:-0.0279103 22:0.0879464 23:-0.108974 24:-0.694581 25:0.220912 26:0.415849 27:0.146836 28:0.329251 29:-0.0315399 30:-0.308725 31:0.242043 32:0.538931 33:-0.291489 34:0.245241 35:0.536237 36:-0.267103 37:-0.0442762 38:0.384131 39:0.312666 40:0.266947 41:0.29781 42:0.432601 43:0.380818 44:-0.237593 45:0.243103 46:0.120431 47:0.272877 48:-0.422093 49:0.535118 50:0.157829 51:-0.772838 52:-0.186001 53:-0.0143122 54:-0.261251 55:0.204574 56:0.41637 57:0.12186 58:-0.176877 59:0.520258 60:-0.626519 61:0.0290949 62:0.502832 63:-0.148855 64:0.222848 65:0.0637692 66:-0.00888099 67:-0.217918 68:0.109652 69:-0.245441 70:-0.103588 71:0.559984 72:-0.159955 
-0.1333333333333333 1:0.0953663 2:-0.383735 3:0.757321 4:0.194444 5:-0.643411 6:-0.223156 7:0.00267722 8:-0.186413 9:0.121436 10:-0.433014 11:-0.513514 12:-0.399267 13:-0.0413127 14:0.256965 15:0.392382 16:0.206795 17:0.153707 18:-0.344 19:-0.161346 20:0.44412 21:0.000906126 22:0.0133333 23:-0.369748 24:-0.671329 25:0.196164 26:0.162629 27:0.285431 28:0.442918 29:-0.047619 30:-0.266667 31:0.17078 32:0.264437 33:-0.160097 34:0.174057 35:0.414361 36:-0.244941 37:-0.151778 38:0.277661 39:0.464296 40:0.227381 41:0.0664439 42:0.464896 43:0.323909 44:-0.339489 45:0.344229 46:0.171485 47:0.0767172 48:-0.634646 49:0.515539 50:0.542715 51:-0.682131 52:0.25451 53:0.349764 54:-0.222562 55:0.467374 56:0.33687 57:0.210526 58:-0.167886 59:0.39596 60:-0.769934 61:-0.0550363 62:0.485198 63:-0.076194 64:0.155975 65:0.0823915 66:-0.0691489 67:-0.218082 68:-0.161047 69:-0.0981521 70:-0.341619 71:0.533039 72:0.172477 
-0.1333333333333333 1:0.0779025 2:-0.137672 3:0.180833 4:-0.0519187 5:-0.717949 6:-0.153999 7:0.267438 8:-0.0879714 9:-0.0905711 10:-0.4003 11:-0.185185 12:-0.208989 13:-0.0939326 14:-0.217844 15:0.0537789 16:-0.292935 17:0.181139 18:-0.372642 19:0.126792 20:0.188994 21:-0.126474 22:0.130308 23:-0.234848 24:-0.604775 25:0.249765 26:0.451845 27:-0.157354 28:0.473275 29:-0.0537437 30:-0.367946 31:0.389722 32:0.425362 33:-0.240854 34:0.292048 35:0.355469 36:-0.264641 37:-0.169514 38:0.539528 39:0.342906 40:0.125933 41:0.260918 42:0.390843 43:0.537392 44:-0.217455 45:0.0327603 46:0.215863 47:0.223538 48:-0.352312 49:0.364212 50:0.189643 51:-0.825659 52:0.0734967 53:0.262179 54:-0.388606 55:0.241773 56:0.324105 57:0.337426 58:-0.21992 59:0.217574 60:-0.489303 61:0.0138623 62:0.514868 63:-0.197436 64:0.197595 65:0.164648 66:-0.0242086 67:-0.23535 68:0.124545 69:-0.183868 70:-0.0766296 71:0.43036 72:-0.115015 
